solver_type L2R_LR_DUAL
nr_class 2
label 0 1
nr_feature 22627
bias -1
w
-0.001698197258862623 
-0.0002763656195632109 
0.007250842189021225 
0.002786952582602078 
-1.013829535735338e-06 
-0.004738384852688788 
-0.001228241125463303 
-0.0002763656195632109 
-0.00110397270543314 
-0.0002763656195632109 
-5.76884251921325e-07 
-0.002650542964956558 
-5.76884251921325e-07 
-0.0005876601986566244 
0.0005097147801929443 
-0.04128930674942784 
0.002964801700508814 
-1.59279272556582e-10 
0.0002781534368992109 
0.0002781534368992109 
0.002864764933908886 
-1.21132126995456e-05 
-1.887584211530729e-05 
0.01079010878359782 
0.00579733063484503 
-9.921724659398716e-09 
0.0004300449746885749 
0.02576195788638819 
-5.646240233021206e-08 
-0.001015891328148976 
-0.0009603403211741605 
-3.586755861744083e-09 
-0.0001717552376852671 
-6.054147582295555e-06 
-1.180708784618513e-05 
-3.95351329419034e-05 
8.777258441966483e-05 
0.008066768534677264 
0.001315688493441404 
-0.002001441973422958 
9.308905991430078e-06 
-0.00131211972162333 
0.0005709825900868506 
0.008399561704818651 
0.004608020277720895 
0.003274873064192732 
0.001981851751504009 
0.006535311411168405 
-1.891132302149947e-05 
-4.0096711534758e-05 
0.0009798168564171454 
0.01005965949554702 
0.008658161814554441 
-9.360983944612822e-08 
2.345767043595221e-07 
-1.294769366311136e-10 
-0.02472528918838222 
0.002212575103384697 
0.000671378450576332 
0.00997428809285131 
0.007498175914683969 
-0.001858837540106535 
-0.0001754357070644882 
-2.976926956735289e-05 
-0.01327351266311174 
0.005855889530141802 
-7.039205475342582e-06 
-0.008669106359318165 
-0.001035223962398582 
0.009993770941787446 
-0.004772576899102472 
0.00579733063484503 
-0.01664744126245404 
0.01438970091087218 
0.0002711922713868476 
0.0001374858749913273 
0.000744529324093785 
-0.003895908579276157 
0.02044135775054758 
0.00858014987553295 
2.345767043595221e-07 
-0.01322861242854865 
-0.04964599717943356 
7.180528750014546e-05 
0.005103329314873053 
0.08948594139645287 
2.386041023196847e-05 
-0.004305286884677997 
-0.00131211972162333 
0.0165487890834581 
0.01298087055721962 
0.02095452736482717 
-0.1997494471325514 
-0.07711965307338813 
-0.01001565285302017 
0.0002140948688859554 
0.2315648695703431 
0.0215802175672282 
0.005056665504464743 
-0.001549860637277852 
0.0002157025900542798 
-0.04194257539255857 
0.04450690674935275 
0.008044097887470954 
-0.0104644529168475 
0.03645227629920551 
0.1169309552591351 
-0.001378388394435266 
-0.01214618591466506 
0.03147523238833712 
-4.884832118927267e-07 
0.0002205680620101728 
0.004191876313621175 
-0.001377053136729446 
0.002246354717661167 
-0.007143856301498253 
-0.05552633209233546 
0.002406014344310902 
0.006517173878588307 
-0.007828761655092855 
-0.004001778493475886 
0.01433380991709057 
0.0004711544623821082 
-0.0076639424833365 
0.001477154722265484 
-0.003462673372929112 
-0.001550147540174566 
0.01689356035911391 
0.0003100251197186649 
0.02286458473320629 
-0.003160696435896822 
0.04410712811628562 
1.289718122495003e-05 
-0.002165013554559002 
-0.004073428117258747 
0.007092540401109115 
-0.003846513995676872 
0.01032011532025194 
0.005834990826740499 
-0.002375069233487545 
0.0008578142008823782 
-0.01987881678723888 
-0.000873530624724464 
0.004786864688365598 
0.007055041729744715 
0.005929088149258291 
0.009492396510379022 
0.002123107786663785 
0.005577601873081823 
-3.935074542422702e-05 
0.0006309024819169116 
0.01054836777839669 
0.01865879196543653 
0.01875680783474465 
2.548490106085126e-05 
-0.0007662474155226574 
0.008107766670542547 
-0.01119218602236933 
0.000941745342119867 
0.01010729986751834 
0.01577196663331167 
0.005537775981083575 
-0.00494020162080795 
-0.01043684276577167 
0.01095440934310644 
-0.001477293794783934 
-0.007316620854930368 
0.004062826340037488 
0.002237358169423088 
0.02106261925227388 
0.003579805928497469 
-0.0009423398794534303 
-0.01037590280949456 
0.07724237569696459 
-0.1177827916723727 
0.0524901274241328 
-3.827025132162544e-05 
0.001908264234639538 
0.03349030155517421 
-0.002457533617387017 
7.228625143526388e-05 
-0.002043622732022842 
0.01440837555465644 
-0.01111038859540889 
0.01320325752304912 
0.001738645597028693 
-0.007795064564566208 
0.000231594039267062 
0.00225803394700529 
-0.0009878070795571487 
-0.1354885864968086 
0.002489379967564837 
-0.003922773173284705 
-5.923872452146982e-07 
-0.008051804520342381 
0.007304868380774447 
0.001404744369703028 
0.005205737931619318 
0.04304920426425139 
0.002634118004575866 
0.02947156546471374 
0.03862760772095424 
-0.001549860637277852 
0.01966501212398843 
-0.0003633159466131985 
-0.002661823356004826 
-7.268869084449708e-09 
0.001373410660508426 
-0.003700059758954778 
0.01165243751147443 
3.583610126077858e-06 
-0.009697962330950308 
-0.002270554932578202 
-0.009106153103757062 
-0.002575091276375677 
0.01711021285344851 
0.001612438559529078 
0.001794174066539135 
0.005456855907982324 
0.001586642997868017 
0.008180563469193844 
-0.001380927680926576 
0.00954236644993748 
0.009017020988158314 
0.0101679130630542 
0.02368532279800938 
-0.01096794578109093 
0.02286629561268428 
-0.004961132588287515 
-0.01312255221846093 
-0.01281131963135944 
-3.992243812533648e-08 
0.001801689745858981 
-0.03720799966532297 
0.01813175936337634 
0.09086839950702189 
-5.599534173709675e-09 
-5.646240233021206e-08 
-0.0003951408782780895 
3.399536358887287e-14 
1.001891150073265e-15 
0.01177838940517222 
0.001755431215292995 
-0.00210286828881915 
0.004381538560796814 
0.0256615526539928 
0.02993594293430305 
-0.002912019775070927 
0.01967764358735322 
0.009378756075782277 
0.03150523590959772 
0.02600970945196915 
-0.009134118467163593 
8.150454288306089e-05 
0.01280077621429532 
-0.007941154106634478 
0.0417794182655442 
9.753634836291922e-05 
-0.003090858844381256 
0.0009365413381936656 
-0.007356014748058609 
0.002447867890333703 
0.01944708941911428 
-0.001931140423306376 
-0.0007475259265025103 
0.01265627984881406 
0.004158860244225043 
0.001828280476588919 
-0.0001090363250260434 
-0.003442031108012415 
-0.002867955749222282 
0.002238452188807122 
-0.01226350254737686 
0.0055862916211288 
0.004617482041705389 
0.0313656626159462 
-0.04396276005737686 
-0.01944053008810351 
0.004865265797499949 
-0.02526579761077235 
-0.009691778889589912 
0.000484710629044944 
-0.004757414856711785 
-6.072420748793758e-07 
-0.009312187121192006 
0.07708955318201968 
0.003786210117919999 
-0.002197069994761473 
0.001034112253345701 
0.001688833817457342 
-0.002108540223984356 
0.0005211985186025133 
0.0003587351028520304 
-0.005839346406655458 
7.469185434551347e-10 
0.000874967751751038 
5.797750772203964e-16 
5.797145856692384e-06 
-0.006778620509082451 
-0.001631039905919321 
-0.004543717141606035 
0.006170053115409699 
0.001046136814428925 
0.001595725701555219 
4.761670340214499e-05 
-0.01327717934825593 
-0.005464676124561385 
1.55271096254592e-05 
0.00761695381319695 
0.03120938901944154 
0.001582161074939634 
-0.0004244954333536293 
-0.02126692582046054 
-0.00110397270543314 
-7.717573790616941e-05 
-0.1152960866294384 
-0.01058728451916151 
-0.03784755353406739 
0.01884234462025063 
0.03396909773179638 
-0.02157671583734508 
-0.04390106717120891 
-0.02671952364575684 
0.0591413633818654 
0.001294798237936872 
-0.01014582295928914 
0.01170860056722113 
-0.01008300838742482 
0.006565374401091301 
0.03433531909231642 
8.147174427416939e-05 
0.02122832096350196 
0.01055725453367396 
0.001421160375607509 
0.005929088149258291 
0.001300953903612847 
-0.0001857993443778866 
0.006810087812221615 
0.01453183406586602 
0.08088683249907963 
0.003271932938035335 
0.002017165129051087 
-0.03631107312452362 
0.02000981923262084 
-0.005092053652494487 
-0.01836256613224781 
-0.03279356041474115 
-0.01505222798377992 
0.00496931983496608 
-0.02229197742937223 
-0.001123357710540679 
0.003322957087107473 
-1.036019222713802e-07 
0.02857767203331254 
1.128905763065075e-15 
0.02393396168007256 
-0.02860621835824035 
-0.04611566215586835 
-0.01741934895964148 
-0.003421460346738054 
-0.03692754010537631 
0.03077417501274275 
-0.004719146028825344 
-0.01124527300703102 
-0.0107216983989775 
-0.0001325244266241609 
3.680339267890004e-05 
0.04960226512789689 
-0.005607220114269677 
0.002004545078298872 
0.007159888170233261 
0.05979685597544054 
0.002415872665759711 
-0.01551725401229524 
-0.005396921755234059 
-4.634643041161084e-07 
0.0004958358236509025 
-0.007676586758099287 
0.0307555173783276 
8.251154881819946e-05 
0.01739065824227293 
0.00155158089959009 
0.001946769744208416 
-0.01216564584796343 
0.009139304799017428 
0.001878157112808567 
-0.0003417578709043401 
0.008296994656730816 
-0.01366924479146405 
-0.01666308365715313 
-0.0285068733311808 
-0.000803276391854528 
-0.004443358339137595 
-0.0543416089705441 
0.01413121773626726 
0.02401587721755961 
0.01168528942672213 
-0.00493309532643567 
0.009608501415034039 
0.05099039446126744 
-0.009214147543112745 
-0.01429762337783667 
-0.0007782156519166854 
0.0005059601701703861 
0.02592542410383986 
-0.01280252221657429 
0.02517814921320042 
0.02531142067935124 
-0.02440022010560053 
-0.0119896096117501 
0.04224889077634863 
-0.01534642315763913 
0.0001162066819994906 
-0.01253215053104046 
-0.0001356048594001279 
-0.01318366276657216 
-0.02315779694603149 
-0.004148978527695768 
-0.004154149107607181 
-0.0146666451729562 
0.06012022078614902 
0.004893474895086966 
0.06136741001379876 
0.02048127586737234 
0.02082999211767324 
0.003358543516658567 
0.002270744633293122 
0.02125848833282911 
-0.003404739467404693 
2.185586130093031e-06 
0.002929366466053522 
-0.0199254280174896 
0.01193755779627419 
-0.03254968551242145 
-4.716131027617713e-07 
-3.782264604299895e-05 
-0.003038550623800081 
-1.898894671649193e-08 
0.001505233049670747 
0.01767297504331035 
0.01016314575817431 
-0.01955024469794653 
-0.001197021500428855 
0.002721679327323711 
-0.007370807679984639 
0.004749160395181017 
-5.679453410863706e-08 
0.01189682331990406 
0.009097364011204508 
-0.002798230841714854 
1.289718122495003e-05 
-0.009780753617898385 
0.008402613720600262 
0.000809161547076471 
0.0008000399227851965 
0.0008035754527466933 
-0.005196052544804345 
1.973426296077686e-06 
0.001062934265987344 
-0.007425598454454619 
-0.003619142150573837 
0.0003217417123255914 
0.0001053997124437359 
0.004321283469676036 
-0.0001642873814097109 
0.01554212237142037 
-0.008252425037959319 
0.0001070474344431553 
0.04456012871085453 
0.03220051106324544 
-0.00399246906389841 
-0.00207798167001099 
1.959643636236139e-06 
0.0005755262181258644 
-0.01610116782327665 
0.01308431873084472 
-0.009875627347817698 
-0.001398773754849744 
0.005728847769940332 
-0.001278858974458483 
-0.0002500737993628098 
2.159812809177453e-05 
-0.001074310536450394 
-0.001970892680480943 
-0.003777228975497304 
0.005839643222913909 
-0.003140035958931625 
0.0156897711843226 
-0.007729558826328625 
-0.007413386191834071 
2.154152991206115e-07 
7.372638971549116e-10 
-1.900224284374589e-05 
4.792734359221868e-05 
7.394262047037321e-16 
0.00517480358206536 
0.006754652534716951 
9.883896983938375e-05 
-9.430735801871747e-08 
0.02202655932764724 
-0.007257140938326136 
-0.002929188515973611 
-0.003608739825473523 
-0.003608739825473523 
-2.327817223457585e-11 
0.002475986318443704 
0.001016944703645932 
-0.003690380202109932 
0.0005412446154709248 
0.01371597667693476 
0.03449251646609645 
-0.00613250055655015 
-0.004519612541387942 
0.01012751968673099 
0.008448213233219204 
2.182875031091695e-07 
-3.036638184191171e-05 
-3.235614693578717e-15 
-0.0007816955833253622 
0.00319699897141726 
0.00569852232260737 
0.00569852232260737 
-0.009942129888881088 
0.01651564925662744 
0.006743144978719856 
0.0141968272742601 
-4.153121686234395e-07 
-3.910261009115091e-06 
-0.001378813740533091 
-0.02029925303922066 
0.004010100315258111 
0.00579247210186693 
0.005929088149258291 
0.001015022312901638 
-0.00686010770760332 
-0.004899856787772843 
0.005855889530141802 
-0.01601049036102196 
-0.03079164656423681 
-8.262374669248563e-07 
-0.009551482479875787 
-4.38825625689672e-08 
0.004635406420693333 
0.001077889887765315 
-0.004540254425461718 
7.260314859273546e-05 
0.001745525151843593 
-3.246997094821774e-09 
0.001336737358158547 
0.003217550255919482 
0.001552369734118978 
0.001244689983782419 
-0.002107924884934629 
-7.738545458518174e-05 
-3.791478010306961e-09 
0.0007209829287963554 
-0.007235056920803299 
-0.002123015328496253 
-0.02412775172739236 
0.009987316710912403 
0.01864554453534232 
0.001834441878891644 
-0.01614617606101 
0.01957690860704962 
0.002489534807183019 
-0.003954395202327708 
0.0005105391413128046 
-0.001106964501381674 
-0.01520726778162259 
0.002146261860472146 
-0.01148541928421235 
-0.0003695417333494657 
0.001662222675301153 
0.004499848137536392 
-0.001937657108884524 
0.0007209829287963554 
2.228478691417602e-07 
2.085900562811934e-05 
-8.448744022695673e-07 
0.02293996891413713 
0.01385636503701772 
0.005917315903693371 
0.01617827137783419 
0.01954328441443666 
0.001100925975914551 
-0.01001038249681118 
0.006358681373024739 
-0.003963544961473504 
-1.213747119643306e-16 
-3.599332486436489e-05 
-0.007786430620916504 
-0.007527969760986243 
-8.918709321193688e-05 
-0.004856021896526145 
-1.249412052891392e-16 
-0.02466036918304569 
0.002997522333293362 
0.006820491905915011 
0.002358283516038824 
4.773369775938205e-05 
0.002023700376462971 
2.345767043595221e-07 
0.007626210688468387 
0.000556836024147868 
0.00274705629708266 
0.007290188163972885 
0.02658165924029025 
0.003802054852685293 
0.004627389399207349 
0.002509197840483214 
-0.004053906849352469 
0.001036641098744502 
-0.005247245180713581 
0.0005289942229409849 
-1.472647775965971e-05 
0.005855889530141802 
0.001315688493441404 
0.01060674841157663 
-0.009942129888881088 
0.01664587902554684 
0.00319699897141726 
0.004882589464257633 
-0.002353311212333969 
-0.0002769612351228279 
5.713724399356662e-16 
-0.000676548477636021 
-0.01243082744593924 
0.004538586581747783 
0.001972976424737865 
0.008050213287776572 
-0.002753828499870513 
1.963799826345932e-06 
0.0005229416574600447 
0.0007972370611188676 
5.713724399356662e-16 
1.438755234531818e-05 
-0.001698197258862623 
-0.004568023866699033 
-0.006910412844240626 
-0.006520111652457318 
-0.01367287291801662 
0.0113377337352715 
-0.1952527577648404 
0.06875662947379249 
0.001187768359705318 
0.007612033356990404 
0.02544842440518589 
0.003640512023336444 
0.02092722656214146 
0.002576893366675477 
0.0018319889562598 
0.02892267357193654 
8.159550777463636e-05 
-0.004272419614991916 
-0.01080737452305269 
0.0047803093095938 
0.001983557669495231 
0.0190648946697035 
0.01016982041423281 
-0.004116193322747175 
0.02708581194697865 
-0.00498071101702654 
0.1237418487966075 
0.01167658121143854 
0.009587630220712101 
-0.002123900391085508 
0.002307886925453089 
-0.009613353821805353 
0.08835352732587433 
0.002720705896421735 
-0.01985690226907418 
-5.599621645759337e-09 
-5.854510913304935e-07 
0.00756566179872883 
0.03573182798326568 
-0.01403143750864768 
0.007385273705767547 
0.001107235200172398 
-0.003895810919467025 
0.01227808443679758 
0.03891911065519484 
-0.01049449036140995 
-0.02998177810088029 
0.008723106989693009 
-0.006985013937483648 
-0.01161539425951386 
0.02364976281206453 
0.0007279154569575421 
-0.0130623747132131 
-0.0046539804000876 
-0.06363487590187619 
0.005331129011229968 
0.004662981302001268 
-0.002573313790071374 
0.01185142823064525 
-0.102409996362658 
0.02772257282578475 
0.01276694303545125 
-0.008921824090950905 
0.0001484210712322333 
0.02805833791065768 
0.001666814945925952 
0.02516100551542452 
-0.02729625395005006 
-0.0005512071640184182 
0.02270579679061052 
-1.844948800294442e-08 
0.005620354374921585 
0.003721374882505421 
-0.002552594096343952 
0.01072268962668152 
0.003504855761120031 
-0.02061942689308337 
0.0002922382141102276 
8.147174427416939e-05 
0.02123718826594593 
0.01064756474367656 
0.02925831664782181 
0.005431989268617901 
0.005020327879271666 
0.04183286384606144 
-0.002350206872001054 
0.06463797137378383 
-0.006776949815794324 
0.03705690652809239 
0.01144395240604662 
-0.01403664299278373 
1.216424061629643e-05 
0.04266113176457873 
1.436254531903701e-09 
-0.006929064579313697 
-2.976926956735289e-05 
-0.01425277711415557 
0.01818145739712485 
0.02371802333966478 
0.00981002559583909 
0.05038459289250474 
-0.0197199564894631 
0.004088161424928384 
0.00425389839367927 
-0.002121817088802206 
-0.00584492139736052 
0.01388925107835932 
-0.002660025026409113 
-0.02467056355818537 
0.003095120156074681 
-0.04886544271046913 
0.001095788219718454 
-0.04829167875214506 
-0.002445176735185314 
-0.001071716043387009 
-0.005048570799777622 
0.03173587582704698 
-0.01044047257526355 
0.02560724860619425 
-0.003457504566728078 
0.0009245502848897842 
0.02581156596896395 
-5.76884251921325e-07 
0.0241325934201354 
0.01419106508577384 
0.009293630116425405 
-0.001071623850036482 
0.007755677759110615 
-0.00371960962865967 
-0.02052778499578242 
-0.0001245913354856199 
0.0003736526371776459 
0.01765204939805369 
0.05018585271943318 
0.001940890368871981 
0.01047189010102102 
6.625666148779117e-06 
0.001704741964341095 
-0.01506296616908987 
-0.00285884106462885 
0.02031079300444048 
-0.001968506806246233 
2.255820197662483e-05 
-0.03220300334742293 
0.04412715804990857 
-0.004172396324194476 
0.1364908296028413 
0.001183585965512045 
-0.01279811007925155 
-0.003316555010238367 
-1.916696809192529e-08 
-0.002429053202511928 
0.00203810035844792 
-0.004082385256996001 
0.01353230286680432 
-0.0001822806383542234 
-0.002488131077393796 
0.001581735926724706 
0.001196661365461891 
-3.035565853721758e-07 
-0.001344705999144557 
0.002087529698293928 
-0.005299554917057387 
0.00411577227983248 
0.01555452215443238 
0.007059134645323026 
-0.008480454177981765 
-0.0004244954333536293 
1.464641929094027e-05 
0.01340039869350339 
-0.005341829183325252 
-0.004113363409880072 
0.0006743451905015312 
0.01295250365545305 
7.200008871405626e-05 
-0.02440545628794035 
0.01175100405029928 
-0.007245705750008179 
0.007660256719609316 
0.005799369821383827 
-1.233503672811623e-09 
0.008654165282096797 
-0.001390399557440017 
0.0001071509619424478 
0.003731503875075571 
0.001211619632528977 
-4.131453225268612e-07 
0.005929088149258291 
0.0007496006578644071 
-1.014721840161125e-08 
-1.200732797313705e-05 
0.004280240230142963 
0.004171804788700357 
-2.976926956735289e-05 
0.01549195581384519 
0.004936242843566578 
-0.006333712455402819 
-4.192587201914699e-07 
0.007044300404424019 
0.004330886321832403 
0.01233138059011632 
0.003731503875075571 
0.08860360442846769 
-1.08736477968241e-05 
-0.003381782485286948 
0.01122597708476882 
0.01122597708476882 
-0.003157172450280471 
0.001697606980148282 
-0.00399246906389841 
0.001880603748041408 
0.004330886321832403 
0.01452114093542797 
-0.009838655784511001 
0.01454112060776456 
-0.005653100836457414 
-0.003321024366897074 
2.164789336386641e-05 
0.0003687263988198437 
0.01356468839409118 
-0.002737178792784286 
-3.071542071371711e-05 
0.0008035754527466933 
0.005799369821383827 
0.001235169083204694 
6.090339389647707e-06 
-0.0007860953708490702 
-0.1790548165734112 
0.01827204883732744 
0.02667651517205083 
0.003343771324529571 
0.02660777967372936 
-0.01438700585039501 
0.003849742397951594 
0.111217550610836 
0.00460347861491837 
0.00462141596455495 
0.03554996302327781 
0.02555441100413924 
0.05227621582570625 
-0.02400187554037386 
1.130902631548099e-15 
0.002227316417769703 
0.01089521047510123 
0.01428869298408077 
0.01582475951653135 
-0.03672965747097971 
-0.002121694824859388 
1.289718122495003e-05 
0.01847023720507155 
-0.04735029698549281 
0.01597364523161893 
0.0008079088445495886 
0.01316759603424142 
-0.000865841859931465 
0.03001297854125044 
-0.008217839436328971 
-0.013367544010104 
0.05199701715993332 
0.001761372990454721 
-0.01126838710978733 
0.0173447470751089 
-0.03051008081360489 
0.01033722445184623 
-0.001553505224315388 
-0.004474395357322411 
0.02549118102309722 
0.02934940609567782 
-0.01224797468526353 
0.01802218948273818 
-0.01677641750229983 
2.564230736387574e-05 
-0.005915436916251068 
0.008296910045708499 
-0.05882593817832313 
6.262302274869194e-14 
-0.01900147270814281 
0.003630722978736253 
-0.001999667379840697 
0.003152930640882966 
0.004044194405826712 
-0.008439702086409944 
0.001069759870911034 
-0.004071740930356311 
0.02030318636629511 
0.03401085789374461 
0.02006213086468274 
0.05726303072137873 
0.001718037854696352 
-0.005805385244345563 
-0.0007451974735220944 
0.01810435307972066 
-0.01326916170879447 
-0.001774054607117796 
0.001603705982335477 
-0.009119601968914627 
-0.008704303606250378 
0.001980236716705365 
-0.01577004980000283 
4.363126701084527e-07 
-1.438806883353597e-06 
-0.06228453567372599 
-0.1073621087237271 
-0.0003131134026957344 
-0.005051061964685208 
0.000667352950530398 
0.01607211833146895 
0.002591342789723354 
-0.04340863534132405 
0.02012797304861728 
0.02382689193059824 
-0.008173401075802769 
0.01656096489262061 
0.02310565117335381 
-0.02937643616535676 
-0.01240196817436283 
-0.01828409042794506 
0.02285792137801538 
0.02810226474846225 
0.0305102380060177 
0.00678288070615112 
0.01340730854485852 
-0.01667435480112273 
0.01440521731307152 
-0.0007394654219798811 
-0.004636564010675552 
-0.007812894858260401 
0.002016948054338053 
0.02073659357558492 
0.05999582270140255 
0.02597372085815055 
0.01207311488033888 
-0.002166909731923582 
0.002822342456667215 
0.002822342456667215 
-7.885347133877865e-05 
0.006468882349538426 
0.001493031981107591 
0.03858414994463317 
-0.006995994581490594 
2.162215270592207e-05 
0.003257509670445803 
0.01312523514514765 
0.005140509844250465 
0.002371585971291775 
0.002885315614935084 
1.451412905218958e-05 
-1.169994548823118e-05 
-0.01116460256678552 
0.005906765558816511 
5.178032611625267e-05 
-1.896837075307686e-05 
0.01285124616566313 
-0.01153866633634676 
-0.001854247642502814 
0.006981465721122091 
-0.00096462076291182 
0.01062455680346052 
-0.000102053473416058 
-2.174414543292081e-05 
-0.006395865767907142 
-5.291878194387378e-05 
-0.00131211972162333 
0.00312205014911484 
0.001220985766097921 
0.002705093415769926 
-0.004462578648576476 
-3.327301168670393e-07 
-0.001716815188005992 
0.00861965191344081 
0.007242785697690075 
-0.002094052228481865 
-0.002818672043424945 
0.003544911748572558 
0.005201706390022818 
0.005089930632981689 
-0.003814139506598068 
9.879412690946486e-05 
0.007287222058559694 
-0.004682641909492757 
-0.002556779176570866 
-0.005548700205406384 
-0.00990007923814434 
0.00729573614229968 
0.001782047102406496 
-0.01211372159618148 
-0.005139344819456176 
-0.00175230410358716 
-0.006144889446558616 
0.002800265457447403 
0.006769850732247451 
-0.005139344819456176 
-4.364388507243098e-08 
0.002191382906332194 
-0.0008755301521699972 
0.004326840166109343 
0.02998704474237122 
-0.00583063988320726 
-0.005064782479092294 
-0.03268928836252182 
0.004050913731944352 
9.538481126677196e-05 
0.003429678914662775 
0.003729702675842218 
-0.01817018296331529 
0.01060279748070742 
0.003469407081776379 
-0.004814877570412296 
-5.646240233021206e-08 
0.004853178038183614 
0.01591710547191263 
0.009777861577504418 
-0.005792409161829925 
0.02328936318663545 
-0.00772223152156548 
-0.007478245108613809 
0.009340601978314713 
-0.01575559102250831 
0.004062826340037488 
-0.0164369378727473 
0.01172722687115907 
-0.07067308163666722 
-0.01423975625960974 
-0.05958539901246145 
-0.009756088568829013 
-4.666444745767942e-11 
-2.34513193083142e-05 
-0.01009781697828995 
-0.01977547211367479 
-0.02081993332475439 
0.0001122316038789748 
0.0132493668446423 
-0.003564356015019691 
0.0192718426453304 
-0.009057474316532853 
-5.646240233021206e-08 
-0.01264088570684303 
-0.002398123269538003 
-0.002106293936333013 
-0.04242259780791573 
0.01322322857756539 
-0.00908743428321207 
-0.0165154630765086 
0.002246742820370708 
0.03530447233877407 
-0.001016274824848153 
-0.003725372816044711 
-4.348829086591329e-05 
-0.006649506076716706 
0.02121349682315327 
-0.003323401204366918 
-0.0186969493169876 
-0.001209031005775784 
-0.01642455850321746 
-1.606326762296835e-08 
0.007645326936169215 
0.02173879411133729 
0.003612320021800749 
0.00192635550594261 
0.009009446201740507 
0.0005496510431908147 
-0.007559802748702817 
-0.002545319182593916 
-0.0004001596437838667 
-8.627986255160293e-13 
-0.001207129332902893 
-0.008895608558452167 
2.575364221676693e-05 
-0.0007012178114932353 
1.078927213005424e-07 
0.003511150684304744 
-0.008624999888519736 
-0.008983529358682438 
0.0004417200493969433 
3.257135066630857e-06 
0.0008806864952259088 
3.179944761126888e-14 
4.751770817686325e-05 
0.02038254104636357 
4.751770817686325e-05 
2.162215270592207e-05 
-0.0004375137327462946 
0.002468796446063651 
0.002468796446063651 
-0.1124856803072775 
0.0593099397871044 
-0.01013273429354745 
-0.007823624597603005 
-8.918709321193688e-05 
7.961474401774617e-07 
0.003317914373084169 
-0.003503517142170649 
-0.0552596620643345 
-0.006667324729608483 
-4.718491748937733e-07 
-0.0180302652063058 
-0.01466036154339176 
0.01789494480389209 
-0.000135511309808466 
-0.0004844232306200205 
-0.003461792121368754 
-0.005220370521093267 
0.004047400752925943 
0.001277889002403519 
0.002997522333293362 
0.005022649262805297 
-0.00248186040200559 
-0.04498025451077882 
-0.007425598454454619 
-0.01077784515489606 
1.289718122495003e-05 
8.130814639412032e-05 
0.0001122316038789748 
-0.02902816470641104 
-0.01372668169653483 
-0.007646551881779849 
0.002953066746594789 
-0.0137601213352957 
-0.0334902967049688 
-1.037109310280492e-07 
-0.007409004305595381 
0.01456375692387294 
-0.005609417448092013 
4.188008589207562e-05 
0.001028681286713965 
0.03263525181272606 
0.0003781699634944776 
0.0004908884502641064 
-0.0312039670064139 
0.01479401411651445 
-0.001214036062809901 
4.149515863202323e-05 
0.03043063426576356 
0.004063632456377429 
0.006070948143208541 
0.003588204271071538 
-0.01265981321225477 
8.150454288306089e-05 
0.003585773127931139 
0.01053938192591216 
0.04966534699098832 
-0.006958225598181616 
-0.008542414083122021 
-0.001011697441774181 
-0.004190348361664153 
0.007314839362223802 
-0.0007317656718600318 
0.01553961300611383 
-0.01369139296434034 
0.005855889530141802 
0.0002808842560552356 
1.971815335840017e-06 
0.004697066883117975 
-4.153121686234395e-07 
0.0006363578249834494 
-0.0001688689099062684 
-0.001217038582376064 
0.03687193139396146 
0.02827135644908151 
0.002569555568843207 
0.007282674507165159 
0.00361296750702006 
-5.323597933996445e-08 
-1.272050662576218e-09 
-0.00211141451508657 
-0.001218474977134582 
-8.93454851663339e-05 
-0.001217038582376064 
0.2765363249326586 
-0.008960238777417723 
-1.385928101857522e-05 
0.01437761171135363 
-0.007808996015026288 
0.0206616917158357 
-0.04352319178596285 
-0.04490024479466618 
-0.01215509913401253 
-0.0612808718301204 
-0.08163649258078449 
-0.05415289846951477 
-0.02393056889726112 
0.009768393879768774 
0.03142282404843277 
0.0646293327294246 
-0.01768804983730339 
0.01189809898207152 
-0.01401414019443282 
-0.01147591077878247 
9.086849068752739e-07 
0.0289592195587939 
-3.912223888248644e-07 
0.05456813171519272 
0.006242377238291241 
0.00954942288842736 
0.02223781228017432 
-0.004992082585884842 
-0.03176979150528617 
-2.976926956735289e-05 
0.009240897442872546 
0.009758825462451019 
-0.005360171583507941 
-0.001474412641823508 
0.007686967068252838 
0.02315797976917232 
-0.003811681053446997 
0.02092855888027792 
0.01355549403253246 
-0.004551059241564481 
-0.05732497557343713 
-0.09686388826096859 
0.03146349271943152 
-0.004679913833427684 
-0.01004713479051154 
0.001366283477761149 
5.803424465777703e-06 
0.005530445747192064 
0.001262031145031683 
-0.001260169420141897 
-0.009412247612668435 
-0.003782447824671641 
-5.601200267874763e-09 
-0.006878307738517904 
-0.02980969831061522 
0.005564375306967532 
-0.02056247618517252 
0.03706472130275794 
0.02686940011314614 
-0.03013082566472947 
0.009459229813195457 
0.01441896226746428 
0.0009853654726714673 
-0.03459103103964512 
-0.008813835134998746 
0.3246761130125724 
0.00723637315683192 
-2.139421969587493e-16 
-0.002802621183946478 
0.001845705423592399 
0.03366904964765374 
-0.0007538969227344871 
0.2868558615276612 
-0.02741307785620014 
-0.004846525762877729 
0.003432290261829475 
-0.007136222696880488 
-7.357221191402699e-07 
-0.02625915465578798 
0.001121527000472498 
-0.01324553702054718 
0.006691539927834193 
0.02520580141853491 
0.0128389834857532 
0.04240445047279906 
0.006769662103618851 
-0.03894765118699696 
-0.03833541347298612 
-1.154392837449396e-06 
0.002089785186150017 
-0.003829278738419321 
-0.002775282044698468 
0.05839879314090113 
-0.01501210141519115 
-0.02347614746557934 
0.01997457900393595 
-0.00992139656932684 
3.710791110870297e-05 
0.07172768341440175 
0.01817442738962353 
-0.01486012584489107 
0.02364112326389301 
-0.05799517217680174 
0.003229217300586519 
1.436640621828194e-09 
-0.01095725726295322 
0.002173656862812233 
3.733147464052727e-05 
-0.0001767640331065852 
0.004075474027402494 
-0.0074089294523586 
0.02959754602265698 
0.005339347933532216 
-0.0009258513936642358 
0.003394416368445105 
0.002778430753106942 
0.06921987501158726 
-0.0002691285088619021 
0.006577609870954039 
0.004945625916719266 
-0.0004859913846396867 
-0.03730909150462882 
0.01533155345520674 
0.0007486964091758402 
0.1318026884256015 
-0.06279252806821498 
-0.03146684913831654 
-2.540831788106047e-06 
0.007696757829004879 
0.1161412998787379 
0.005242163185455066 
0.01291953754576176 
0.06808199302854931 
0.01556379647802492 
-0.004787023111460273 
0.04183439466932697 
0.0007762669933002225 
-0.02658522634752481 
-0.002768702699927453 
0.03354575513811545 
2.237948520399926e-05 
0.01312523514514765 
0.001616868682981074 
0.01251045826398409 
-0.006180658508305785 
0.03088192483005539 
-0.04848506875055651 
-0.00706261888925202 
-0.0193155769412401 
-0.01515354562355201 
-0.01667529507192323 
-0.00330010083334123 
0.08097530473406088 
-0.02882652543164798 
0.0006729746549929588 
-0.00224962167586948 
0.02099000000050208 
0.1142868048441052 
0.009201553862180927 
0.04328277495816283 
-0.02484591933993631 
0.02913932641016301 
-0.04665979238279445 
0.07178861315412918 
-0.02771392202013909 
-0.00276506440961022 
0.004793605390497325 
-0.001980792175285461 
1.971815335840017e-06 
0.002572382105850351 
0.0113377337352715 
0.004384597850040626 
0.009460757176607543 
5.696951172791105e-05 
0.0008000399227851965 
-0.0001661322983563222 
-0.003506558716025764 
4.777757064346443e-05 
2.097977737289159e-05 
1.993724395127151e-06 
0.02303920351605072 
0.00708771244246069 
-0.01036161050443263 
-0.00537070977320156 
-3.273878552259507e-09 
0.00758669378046592 
-0.002576036211079303 
-0.03615335921520096 
0.002693030568881487 
-0.003819122823593699 
-3.107257676845575e-05 
0.0003568319988583284 
2.105002216318092e-05 
-0.000401638195927264 
0.03546202804981965 
-0.01544197072663251 
0.01047699366532026 
2.306651591920695e-05 
-0.004157263553699481 
0.0007512181809976187 
-0.009492017863770583 
0.005201706390022818 
-0.005738983983911593 
0.01314373370998951 
4.588187337678509e-07 
0.0006216356725002997 
0.0007989892304851747 
-0.01736202591438038 
-3.043386269045988e-05 
-2.283602020813207e-08 
0.0008199965727447107 
-0.003690380202109932 
0.0008166064060347925 
0.005855889530141802 
0.005855889530141802 
5.713724399356662e-16 
-0.00207798167001099 
0.004633161211235205 
-0.02253213938020104 
2.182875031091695e-07 
5.881876737596732e-16 
9.171722113654733e-06 
0.0001073890751912467 
-0.006379781420804898 
-0.002079891579639031 
0.001106750981079438 
0.004792925390934538 
-0.008780590963614996 
1.452156456910203e-05 
-0.003772937856844495 
-3.572449713011777e-09 
-0.01313468824270448 
-0.005741376148800046 
-0.00096462076291182 
-0.0163779269256666 
-0.01882759651957887 
-0.001433590541694546 
0.002348505434956037 
1.209268625972972e-05 
-0.002444929367234675 
0.002061353328925644 
-0.0232860714567578 
0.01789288522088352 
0.002584898526524404 
-0.003243984501597838 
0.010231868918214 
0.01674998931155199 
0.009938488112714989 
0.0009140595079354326 
0.004050913731944352 
-0.03476574481638522 
-4.542426689752949e-05 
-0.003472307670702746 
0.04393069766664454 
-0.01978381952573719 
-0.009675190441177831 
0.003050567260795772 
-0.009164985029838571 
0.002595898289660769 
0.004590530983959533 
-0.000154867701483911 
0.02189407673346434 
0.02764443558121102 
-0.01059631376789077 
-0.01100590536522614 
0.001294621601238677 
0.007749667124177951 
-4.695014815163203e-11 
6.279610814563715e-14 
0.009563015962727123 
-0.05378752913140723 
7.394262047037321e-16 
0.003736752464660307 
0.007559900176662363 
-0.01920242314475063 
6.184719801153002e-09 
-0.06255900600433956 
0.02321019923803667 
1.4534631116086e-09 
-0.004762356886276413 
-0.004099209634375053 
9.481440375757574e-05 
0.07414846845194963 
-0.01262487489760609 
-0.00454666458833007 
-0.0094679934050675 
-0.007013226095246202 
-0.001484559364819301 
-0.001430979120031913 
-7.629226153679391e-05 
0.01113353908359384 
1.134913274212243e-15 
-0.01099450436306497 
0.0006553720096057324 
0.009403772439329985 
0.004466520088844204 
-0.000950093531151361 
-0.0006233395678624999 
-2.333222371148111e-11 
-0.03454793851496386 
0.0009526616531257604 
-0.06296945013642799 
-0.00856709052606819 
0.002047146729535196 
-3.337995876515864e-05 
0.002223633428460974 
0.0018614573297883 
-0.0006741829235185066 
-0.01768749925090752 
-0.007690089896829637 
-0.01109442177364888 
0.006690449117351466 
-0.003399898695610108 
-0.01364819494792712 
0.001017986711771887 
-1.065970417949725e-08 
-0.005092485346652396 
0.005248634013467492 
-0.007680843119464919 
0.0002972324501865817 
1.971815335840017e-06 
0.004321283469676036 
-0.05127657997970621 
-0.0007539890921175957 
8.024277168972008e-07 
-5.349069694435719e-08 
0.004731528608358354 
-0.001263999038836544 
0.01882704063460912 
-0.0045589135200002 
0.0448889196564788 
-1.229098302573565e-09 
0.004652332912804589 
-5.254097486625531e-08 
0.02027325269617335 
3.702168919777747e-05 
1.467189132447993e-05 
-0.02105081573938098 
-2.318071578445504e-11 
0.004926372263820049 
0.001687961485940571 
0.0005717959555994836 
-3.035565853721758e-07 
-0.005682299616426887 
-0.007893194998987557 
-5.832137029627579e-07 
-0.003576291395777381 
-0.003464532289656849 
0.008222354266715913 
-0.003658310427465184 
0.0002788073325828249 
0.0008639951405668056 
0.01078922948412214 
2.583088292924031e-05 
-0.003858623657426138 
0.008455365906598062 
0.002703452228874012 
-0.00423052887926227 
-0.01039144743364484 
-5.813911601403436e-07 
3.109713210888781e-09 
-0.006155727331606945 
-1.613018664977295e-10 
0.006346223415462325 
-0.0001646176899109416 
-0.002101802377228541 
-0.01001038249681118 
-0.0002745940450788256 
-0.003809938792773338 
-0.004318624498627421 
-0.005756090382727588 
-0.006287794303320406 
-3.043386269045988e-05 
-0.003987214935505917 
-1.373570892673905e-11 
0.1006226396107228 
-0.00782321178097317 
0.021223469071573 
-0.003810500987781836 
-0.0001033920658870939 
-0.001482951834169713 
-0.06799843918062799 
-0.003837897732803531 
-0.01604628367860114 
-0.005315628633141751 
-0.02114971865181807 
-0.03987832409581875 
2.345767043595221e-07 
-0.003375298210333544 
0.02710661528677919 
0.004428486010750493 
-0.0388764399307555 
-0.004131150551048807 
0.006171738419011761 
-0.01139984209130638 
-0.01109405685683067 
-0.005159149444721586 
0.001171246338639792 
2.345767043595221e-07 
-0.008284631393003035 
-0.005669082538373689 
-0.01888746609593309 
-0.06261883066862821 
-0.015005295913585 
-0.007744907699495365 
0.005929088149258291 
0.07773056938660253 
-0.01138844911551727 
0.03094310899722947 
-0.01600451716725805 
0.03066329289387044 
0.07374816856797493 
-0.008237303676227298 
-0.004772576899102472 
0.004985830895092625 
-0.01008758033033135 
-0.01023693968028771 
0.01607856536777292 
-0.03681698728849499 
0.03625045689301058 
0.01204220499423227 
-0.005131359215971018 
-0.00287993021682641 
0.02259074319596589 
0.01717287186749035 
-0.01015529954392554 
0.01163938775568934 
-0.0117323274311607 
-0.02472024670625261 
0.03680776657302995 
-0.01081133174101279 
0.07530388339810445 
0.01003632852366281 
-0.02498027542718138 
0.01578601210264009 
0.05368450576936914 
-0.05454243347471381 
0.0005393305163813009 
-0.02597998379457117 
-0.00640822855343877 
-0.003860485958778161 
-0.007596106144903722 
-0.004893692159366113 
0.04268403072924895 
-0.02208733551114269 
-0.01212326910475247 
8.024277168972008e-07 
-0.001588668596162477 
-0.06544900888925231 
0.001843248325403341 
0.03221632906699039 
-0.01918988467799262 
-0.01648817450596271 
-0.06776315084708097 
0.00532820034994988 
0.03025254662781203 
-0.008394022051574232 
0.137111241857284 
-0.0001011949060169597 
0.01127499265931607 
0.01539948794863858 
0.06791640286569711 
0.01938132430124698 
0.002935296271307234 
0.002448968762182244 
1.158835505609755e-05 
-0.01354192485076403 
0.02697703459982376 
0.007804509321166051 
0.009812666326519316 
-0.003442031108012415 
-0.009903020769691044 
-0.01154337908731985 
0.02045037366532462 
0.009662926044636672 
-0.02012856169113732 
0.062861448088081 
-0.1148797573981343 
0.002068224506687975 
0.01173231766381554 
-6.707297152237033e-07 
0.00600022729525758 
-0.02875382581689424 
-0.04074299860144822 
0.007022230114169305 
-5.775238131775798e-07 
0.01184181350536111 
-0.001858837540106535 
-0.00120277641149036 
-0.01282605471789786 
2.345767043595221e-07 
2.412788959126338e-07 
0.003327151434285791 
1.963799826345932e-06 
0.002741220579477008 
0.001774780741621721 
0.001682707944272615 
-0.001006994386646552 
0.001418130637306264 
0.004603190826503501 
0.004417145874286092 
-0.0100319944889104 
-0.00592238183033798 
0.002857413732087893 
-0.006227305556380027 
-0.01638259614142541 
-0.01435167130036052 
-0.009778870126125017 
0.004146681642484587 
-0.00509382306680438 
-2.495150042565634e-07 
-0.02171654370245636 
6.129707943469179e-08 
0.0001093250394311413 
0.01577209818186421 
-4.444402296541162e-08 
-1.395292497628043e-11 
0.004882589464257633 
3.179944761126888e-14 
0.003569894591506321 
-0.01077784515489606 
0.01361706586738542 
-0.0006233395678624999 
1.000863417824504e-15 
2.138749368425979e-05 
2.138749368425979e-05 
0.001119681195312251 
0.00111665660292788 
2.306651591920695e-05 
0.005658494113774898 
-0.01038801973710275 
-0.008974804911186816 
0.002214243005378794 
0.003858184826178529 
0.003858184826178529 
1.444057772253781e-05 
0.000585623169319896 
0.004697066883117975 
-0.001780567073000504 
0.001576628979906829 
0.001543806396447298 
0.003601806184228735 
0.003601806184228735 
-7.184166056792649e-07 
0.001408318255676102 
-0.0003697327109893274 
0.02777727913745102 
8.468682774092827e-05 
-0.2095371980891764 
-0.05109981010608498 
0.001075546787144958 
1.128258365110075e-15 
0.004619994121859014 
0.001594375461096461 
-0.002266583964372724 
-0.003519371746338464 
0.01624908466770241 
0.0002445530341155823 
-0.02061942689308337 
0.001054273513397069 
-0.00297794993027473 
-0.01224355765398979 
0.004326681734640633 
0.0102325538859457 
-0.003938734425240807 
0.004657062046831633 
-0.006848217566382462 
0.002564741206155614 
0.002081326507945638 
0.02376809435738511 
-0.04184818045760817 
-0.1452731626674191 
6.373069890816887e-14 
-0.02083247775172096 
0.005855889530141802 
0.005565038685704874 
0.001736706697242961 
-0.00140917546768505 
-0.01844635665327119 
0.0001752032685388964 
0.01059386876091722 
0.004074035905533892 
0.007248377741829574 
-0.07005977324841049 
0.007365860472030719 
-0.0003343868885694104 
-0.06458141301832665 
0.01510476239330745 
0.003375922971881143 
-0.0009008028015440884 
0.04270202566262973 
0.01110526568413636 
-2.461537373550381e-05 
0.03133739967052575 
-0.0362624216889252 
-0.05116153609060212 
-0.03623114339593 
-0.0001007340563501371 
0.001405981143957463 
0.01219364537405041 
-0.0148584773820495 
-0.01038334205510813 
-0.03629866100941388 
-0.01845726472984912 
-0.009494047278604777 
0.02115550027062214 
-0.02113461762077217 
-0.007831878242553563 
-0.002585327759109169 
-0.0119952961675532 
-0.004155963340028827 
0.0001115579447921717 
-0.02242913361607398 
0.008237157473496218 
-0.007455006027884836 
0.003674215817983173 
0.0361427816087576 
0.01116780167115447 
-0.01262754639930705 
-1.154318935130722e-06 
0.0001422251999490385 
0.008311175720920251 
-0.01006421829700546 
-0.01956617640718108 
0.004922233959200947 
0.00320639058835324 
-0.01448626975005558 
-0.003926866874062512 
-0.007444140473030013 
0.04256869818395765 
-0.01128716235597408 
0.01098990836917569 
0.005855150961637218 
-0.02922517042614086 
0.002582742155923385 
-0.007351968464090313 
-0.05634106229939018 
0.003025340906892292 
0.05939018687109304 
-0.01625018363714208 
-0.00371655536081011 
-0.0009778710481148888 
4.773369775938205e-05 
0.007044300404424019 
-0.004905003205838103 
0.01207476725845876 
0.0006373925531554 
0.02660899527245468 
0.001898686476387133 
-1.275160677973184e-06 
-0.008514153074743222 
-0.02086085729742123 
-0.001048481255862082 
0.0244198098330898 
0.02369169246701025 
-0.002337727316834803 
-0.004598903989473364 
-0.005297952942299001 
0.002528332752232371 
-0.0005884845195102894 
0.00129114375895593 
-5.286205251333711e-07 
0.007109843387770701 
0.0002214042073123289 
0.02088613864568697 
0.02017726044081631 
1.469967899744528e-05 
-0.002640295160394509 
-3.071542071371711e-05 
0.007984260289112347 
-0.00362346937577948 
0.00724385996987848 
0.01489175202811277 
-0.0007444735121003901 
-0.008217561927063043 
0.00226979751380242 
0.008630883539268651 
0.01744600687495299 
-0.001980792175285461 
-2.977189587297914e-07 
1.451412905218958e-05 
0.005675610019188472 
8.405544981290121e-05 
-0.009736288690373036 
-0.01747828948076015 
-0.08371270526544887 
-0.001686485220498411 
-0.01109582451440722 
-0.0008211269783403622 
0.02947863090264506 
0.02648518620583168 
-0.04264245410313466 
0.009804580216843682 
-0.008124124194465258 
-0.0002014142908498455 
0.06100454090945321 
-0.009891813867000302 
0.01184509497584063 
-0.02058643581006714 
-0.01569022330112856 
0.01753628750974635 
-0.02281306051145357 
0.003360918869787102 
-0.007757445868451061 
-0.007968851336109943 
-0.06384646726995773 
6.489281195032764e-06 
-0.000243088731773824 
-1.458439725816109e-06 
1.130902631548099e-15 
-0.01362954630358717 
-0.01275299231410773 
0.008895445347423727 
0.005250160944965259 
-0.01093886611925063 
0.02653910024444539 
-0.0304997946180486 
-0.009443417654713357 
-0.004226233047872265 
0.03677284854361489 
0.002850170128096489 
0.009485229976669807 
0.001594474122237735 
-0.0006548908613863611 
-0.0009005803156626492 
-0.004450914022124831 
0.004419749342515605 
0.01122597708476882 
-0.0001784139808794044 
0.003047664021169115 
0.01056365632959468 
-0.00599312994902752 
-0.0239973441022791 
-0.0008346854405475283 
0.01818294203799141 
-0.009400035647101646 
0.007668811133706642 
0.01428879325662723 
0.0181310290945511 
0.009962955292277552 
0.0003482228834574337 
-0.08850512600957973 
-0.01916363763989619 
-0.003442489498455271 
0.05316331848058051 
-2.135037184746689e-12 
-0.0367828849497222 
8.366262472176843e-05 
0.01120041170528282 
0.005146415644513055 
0.03848641679135045 
0.02545756643828264 
0.0001478535225936219 
0.04936418933252845 
-0.003527218582707296 
0.01079751989379112 
0.02783758508508348 
0.01974845214715248 
-0.003472307670702746 
-0.07766065608399597 
0.02134312630904674 
-0.001165725945092858 
0.004834422112167724 
0.0390947921422196 
8.216610573105678e-05 
0.00840056033319503 
-0.0020696493857233 
-0.01794338863120802 
4.171801125623869e-05 
0.008599241340345114 
0.001792526526340993 
-0.001339589332281617 
0.02734788262547683 
-0.0117890816364088 
-0.01099651738140395 
0.02699306885492141 
-0.005768445112120257 
0.0001118045725256353 
0.003244994792589091 
-0.008840245461935715 
-0.05859777656734925 
-0.006077131470491416 
-0.002160400336674908 
-0.005247245180713581 
-1.38108702191933e-11 
-0.001554100347698278 
0.004070792119688792 
0.01834760563784168 
0.003945870844955022 
0.01079010878359782 
-3.390911338077925e-07 
0.007842475162286783 
3.652650455774873e-05 
0.008120360788567987 
-5.603187579317623e-09 
0.0007992318016524288 
0.0002789092886296241 
0.0183279208847662 
-3.246997094821774e-09 
7.229758371577654e-10 
-0.01536494907420741 
0.005713677549773357 
-0.007979791790306898 
0.006908068489372608 
-2.977189587297914e-07 
0.001862940486513004 
-0.00120277641149036 
-0.001196718379874253 
-0.0114632680495628 
0.01009657404462182 
0.009825139705415023 
-0.006652469940072908 
-0.01863207616759613 
-0.008705756469295148 
0.0001071509619424478 
0.0006882667112101611 
-0.000135511309808466 
0.01595371055088709 
-2.927255456652467e-07 
6.929130367680274e-05 
0.0003713751923706872 
-0.005509947378586589 
-1.223408032665185e-09 
-0.003204686903518 
0.00517903591580291 
4.150909933971184e-05 
-1.234772167261847e-16 
0.01609373606915634 
0.00579733063484503 
0.01034746075446457 
-0.003071158282536836 
-1.234772167261847e-16 
-3.035138609783464e-05 
-2.920107091685594e-07 
-0.005229973812953961 
-0.004657656406783879 
-0.002079891579639031 
-0.001653442126062343 
0.002761590986488502 
-0.01077165032617921 
-0.003741192678590871 
3.150319232651446e-14 
-0.006423233665227728 
-0.01212635890684459 
-5.607977600001027e-09 
0.006449320471538922 
0.02434173598836085 
7.700194980334095e-14 
0.003691541205940322 
0.002313090218381511 
-0.0007889274179915116 
-2.365104913937108e-11 
-1.168494555812376e-05 
0.004613190688778485 
-0.001114186077814842 
-0.01459949292733074 
0.01142456910593016 
0.01235619408811275 
0.02493275012346208 
3.652694808176458e-05 
2.1675540737235e-05 
0.00449609488604418 
0.006944433963585012 
-7.71392654402543e-05 
0.007582805247018867 
0.008798708815434556 
0.007954523256066276 
-0.01540870243894589 
-0.01540870243894589 
2.143555014715909e-05 
0.0005468661659394366 
-0.002699387369609187 
1.990775098682293e-06 
-0.000804865161629213 
-0.0004859913846396867 
0.000795741306784475 
-5.394674395174469e-05 
0.01797656164035178 
7.660769601424467e-05 
0.003635135848182272 
-0.009681456707923025 
0.008771498481882391 
-1.065970417949725e-08 
-9.583484045981155e-09 
-0.02366604300515212 
-0.00120277641149036 
-9.516146239313152e-08 
-0.007690217337186208 
0.004235333644283792 
0.009747947054336492 
-0.000401638195927264 
0.000283444399013951 
1.028879083261434e-05 
9.798848412022248e-06 
0.0008618923862062008 
-0.004977711999019489 
-0.005336413580721011 
0.01191588874188376 
-3.627833988030202e-05 
-0.02099481886643472 
-0.0010188037911243 
0.00170974487085394 
-0.009943914808790696 
-5.959349576387218e-05 
-0.01086443410719377 
-0.006308847186025934 
-0.004750451002131558 
-0.0004852990892194903 
-0.002120502382437627 
-8.679892665542622e-13 
0.006977846958958094 
-3.265699428960659e-15 
-0.0009864942495985333 
-0.007694583447040556 
0.01281129585753447 
0.0069114317980041 
0.01223352813484311 
0.002047696823612126 
-0.01089971347159845 
1.289718122495003e-05 
-0.001799729760612642 
0.007395429431206343 
1.464641929094027e-05 
0.0005148031857227502 
0.001232551221748992 
0.001209808764741539 
-0.002768034611063891 
-0.02076698052692559 
0.001303908890784327 
0.003508441463090486 
0.006195025310470462 
7.2617080614791e-10 
0.0002872236576678642 
-0.00283435673808786 
7.229758371577654e-10 
2.1675540737235e-05 
0.0002947393541462709 
-0.004932400707791072 
-1.591253795430156e-10 
-0.007365890190313979 
-7.729557600857166e-05 
-0.00423052887926227 
0.0006373925531554 
0.01173227241327015 
-0.003474117018200446 
0.01258719826938477 
0.01258719826938477 
-3.702717759922346e-05 
7.29336328407845e-10 
-8.695864834638778e-05 
0.004542378416051081 
-0.007802307615300752 
-5.679453410863706e-08 
-5.679453410863706e-08 
-0.00166285096791278 
0.001697606980148282 
0.0004861907466057647 
0.005213943778353903 
0.001536029921050476 
0.001546814484184938 
0.003510909942938107 
0.001003127520173586 
0.001203241441933648 
-7.065936093667331e-06 
-0.00513537927560342 
0.003012044587264343 
-0.001796217189589348 
-0.00211141451508657 
0.003598922190891559 
-0.001774130928260763 
0.004549047587595711 
-0.0009741244157483585 
0.002761590986488502 
0.03597269414962635 
-0.005476748146036715 
7.273252907378944e-10 
-8.222070402590836e-07 
0.005814472346959999 
0.01062924416643215 
0.004394265146058674 
-0.003020652393432302 
0.01051840892528147 
-0.009476880978063059 
-0.001302889991749135 
-0.003929858292141315 
0.007250842189021225 
0.01061747313189385 
-0.003840446657962455 
0.005855889530141802 
3.288409942820191e-06 
-0.01076423814947223 
-0.004748868250001444 
0.0001128290471052665 
-0.00562990864957378 
-0.002123015328496253 
0.001898804353502978 
0.005841550786804673 
-0.00370822889333626 
-0.004009806600423881 
-0.005142091522649905 
0.00101905017922396 
-0.01548012860249877 
0.005536048927416525 
0.003027800336657532 
0.0005163388587541833 
0.004803473959047841 
-0.001253001953084297 
-0.00173615383535425 
-0.003630955986818565 
-0.006371429149656996 
3.251660890056065e-06 
0.02128434909197882 
0.002504363780682544 
0.04673737667561994 
-0.001029063612771183 
0.002691704477294752 
0.01350862693578445 
0.001327594147775384 
-0.04873825206922198 
-2.374461517663297e-08 
-0.01128032426453045 
-9.583484045981155e-09 
0.01981228973365121 
0.0007992318016524288 
3.150319232651446e-14 
-3.003147098922002e-09 
-0.009456041767251313 
-0.01072448585710974 
-0.009066476841226663 
0.001872854007319182 
0.01247655314321616 
-3.35284681230392e-05 
0.006511484815583602 
-0.002768034611063891 
3.260128756957099e-06 
0.03380967788701248 
0.01079010878359782 
-0.00373087026703167 
-2.615442969131966e-05 
0.001034112253345701 
0.004245777748414331 
4.853594478066183e-05 
-0.001023549442416634 
-0.004021180543527966 
0.001044892894318521 
0.004861361395691354 
-0.02167549163496243 
-0.002071374415103563 
0.002061262840194697 
-0.002481620143091794 
0.0009192717392310323 
0.001302731014641384 
0.003620893403946093 
0.01909525148904141 
-4.015672409872651e-06 
0.0005130032626462122 
0.01832857529673379 
-0.05150230105855749 
0.008965285544280952 
-3.782264604299895e-05 
0.07139853377887341 
-0.03527963794503786 
0.0087224329133395 
-0.02046960135570926 
-0.01458284208916879 
0.05523768497616124 
0.041817757808036 
7.194575010403763e-05 
0.0446968335845367 
-0.0143247192868271 
0.02203222755150745 
0.01486249323733685 
-0.005079545228852101 
-0.00428206657475699 
0.012970975598213 
0.005848924153753723 
-0.1001057169640423 
-0.02656196131087784 
0.0144667355417758 
0.003363466468009626 
0.003115652548651899 
-0.004587900054742096 
-0.009114554430717034 
-0.01328965857801595 
0.01980351811705186 
0.01324549277834865 
0.002569118403087815 
0.02238305705776718 
0.03171653945849128 
0.004725301494222013 
-0.001950527812506 
-0.002573313790071374 
4.13741814931419e-05 
0.005929088149258291 
0.003313555429141182 
0.00165077411524787 
-0.001918841301961773 
3.656219603277055e-05 
0.00477933498339493 
0.01004717450617328 
0.03016576811099083 
0.003721374882505421 
-0.06552183798379693 
-0.03991066061247042 
-0.01874819433216226 
0.005929088149258291 
-0.01156135933473442 
0.001210592020597482 
-0.0142858999892922 
0.001741602477294841 
0.008485117186474931 
0.01396697917930655 
-0.0318666023418331 
0.02550351743748972 
-0.03587122069128667 
-0.1214595962703827 
-0.01122362056934739 
0.05781289868866845 
0.02699486072668981 
-0.04228947472154224 
0.02286427423106803 
-0.01770171018829815 
-0.02557217026065642 
0.007456760934854515 
-0.00215827803760583 
0.04660229807262248 
0.008453659509528436 
8.022466952197241e-07 
0.01506407252359527 
0.001782189899842445 
1.22367132649215e-07 
6.475741711159241e-06 
-2.42405498552271e-09 
2.422427082248918e-05 
0.01161480968533702 
-0.01064283030365855 
-0.002020548742754454 
-0.001957687597410683 
-0.02109623074355953 
-0.007625433011481669 
0.06222989741363077 
0.00167003302368458 
0.01665402585767742 
0.01244975634164543 
-0.009351038268795893 
-0.03257456782226346 
-0.0183630388223404 
0.005310886122218064 
0.002130454618473377 
-0.005153282943881239 
-0.01974015645271119 
0.001799822370375577 
0.001161710591777868 
0.009621990082924418 
0.04159316813642268 
-0.004179995430119756 
-0.001590698921424899 
0.03208708829190906 
0.0109159572380595 
-0.001982212569003688 
0.005357811292900418 
-0.0214939871686996 
-0.00718654759529019 
-0.02108143305427994 
-0.006560759718143937 
0.01768783824379266 
0.01481624770584969 
0.009531467954992703 
-0.009100842572376776 
-0.003099927383201074 
-0.01413145324809825 
-0.001266075824337505 
-0.003626818639088052 
0.01363486786100413 
-0.01542606990309427 
-0.0002500737993628098 
2.164789336386641e-05 
0.002848884862216073 
-2.478205050763902e-07 
2.114660186368434e-07 
-0.01077784515489606 
-0.01505758062103205 
0.007352581425766084 
0.005855889530141802 
0.005855889530141802 
0.006592180733384721 
0.02024389457941949 
-0.009188744578322569 
-0.02053222553815493 
-0.001738172618880487 
-7.748479406471366e-05 
0.00123465216133233 
0.002807283666611239 
-0.001209031005775784 
-4.034454342719949e-07 
0.0009178863180850455 
-9.000927020528191e-05 
-0.006227305556380027 
0.008487590758716154 
-0.01195554445000895 
-0.05090610747863136 
0.01361536818506878 
-0.0144720210891354 
0.04367336140581642 
0.0007770930744099849 
-4.18576815921199e-07 
-0.05548599429138306 
-0.0002005119869088713 
-0.001017178881727782 
0.002459510286595329 
0.01823575595401238 
-0.008334638194995816 
0.003462464797940908 
0.003668862364858926 
-6.339139939563477e-09 
0.001174371124067348 
-0.0006233395678624999 
0.004083189295933925 
-0.01062146243584507 
0.003715640868817606 
-9.364712212840718e-05 
0.01541238123468381 
-0.000136092758775201 
-5.294766037516472e-09 
0.007295733438509399 
-0.004505496119633271 
0.04795788347343102 
0.004663580398984263 
-0.01649138179176928 
-0.006613263526791175 
-0.054825222088479 
0.02444792442665979 
0.1043524200602383 
-0.00510258777673112 
-0.006149474438861533 
-0.003637870534787816 
-0.004793762358330317 
-0.003805426346584281 
0.008105616651706633 
0.002276515634762218 
-0.001884540832800467 
0.1130674357962548 
-0.01926644519816194 
-0.01171821418034387 
0.001715643051740433 
0.01280167590577717 
0.006021225595372375 
0.01151410170411799 
-0.0004785117111005819 
0.007777313983513347 
-0.02593471065626157 
-0.003587114113573003 
0.003127406805763446 
0.02242430489951798 
0.001111691104607657 
0.03105454619652884 
0.003924235616066868 
-0.04321627225354023 
-0.01661573796523021 
0.001188976569105561 
0.004539613086597147 
0.009417260055530971 
0.00236374917986818 
0.001990787753451693 
0.004239732984305448 
0.01898108401051229 
-0.09526439850074897 
-0.0549921278626284 
0.01243711490577057 
-0.009501692643769913 
-0.01253757466107271 
-0.04424721518993224 
-0.004994818486081971 
-0.0001375700567964049 
-0.002686322124571616 
-6.376093060560282e-09 
-0.005433612489621712 
0.006192363915097364 
-0.002662745992953261 
-0.01060579556221207 
0.05825165980245951 
-0.02416441996590526 
-0.002776934730121448 
-0.008648782710129095 
-0.003920198161305497 
0.01079831586950151 
-0.02669204041858467 
-0.01228800488617453 
-0.01545339486737961 
8.139730006338269e-05 
-1.165327903900815e-05 
-0.002764489528490273 
-3.542003488912561e-08 
0.01382571882860292 
-2.44171100843557e-11 
-0.005424658231135093 
-0.01515762592330311 
3.6210626805168e-14 
-0.01078125895647271 
-0.0001042481717692535 
-0.005440613108294004 
-0.000406738363494646 
-0.001283314929074633 
0.1520984962411004 
-0.005562604733932086 
0.01145778056563936 
0.001748244744561351 
8.389484414300537e-05 
-0.02052778499578242 
0.006186005506146862 
-2.981730295433491e-06 
0.002071571481566835 
-0.005486671651971981 
0.01020956131254711 
0.006989046556201226 
0.002468777203368806 
0.01513636050637377 
-0.009459572671280364 
0.01831871982511431 
0.004405033554242089 
8.39628291600541e-05 
0.009255304203182369 
0.01714751802916665 
-0.006405240930269111 
0.005442533600590094 
0.03863418634091426 
0.01681083044068471 
0.01249728686126418 
-0.01788260394647518 
0.00449860174965652 
0.01255156749230567 
0.004038840970139988 
-0.002573313790071374 
-0.001274851201699046 
0.007006574339561843 
0.02430286289294615 
-0.003138138790414653 
0.00833292019300518 
-0.003714149566834045 
-0.01173803913594609 
-0.02454255582766759 
2.261860640766803e-07 
-0.007593979898940051 
0.007668811133706642 
0.07649147343990642 
0.06236880293054634 
-1.244916516307662e-05 
-0.01081857714434653 
3.331835583118852e-09 
-0.001648316957603426 
-0.009418183047643391 
-0.0483522277180899 
-0.007850690596215992 
-0.00043351359964603 
0.01082356363895799 
-0.0301159991495366 
-0.04829386375164896 
0.009166840738974507 
-0.004118758404441413 
-0.001418499650962153 
-0.03431271364701767 
-0.01070903522687215 
-0.03456342773919427 
0.003985128927353483 
0.01350401687378483 
-0.09493660788111323 
-0.003504608207174319 
-0.07580257125160443 
0.001741066434673119 
-0.006876542406940116 
-0.01081048893878953 
0.03468183322594207 
-0.007467384888327013 
0.002230377801956957 
-0.00877730296824334 
-0.004792196232592086 
-0.005528979056971394 
0.001218251398594818 
0.003862073136556413 
0.04559479296784281 
-0.005501877317841835 
0.01914785715404558 
0.02458842636580072 
0.01040341278004564 
-0.053823135964958 
0.009777338966809886 
0.002725079009795317 
4.142541163946244e-05 
0.006492211675360691 
9.161335148673337e-05 
9.880768902781456e-05 
0.001370860509369289 
-7.084122594912652e-05 
-7.084122594912652e-05 
0.05345059895485602 
0.002765052053681404 
0.01205707477963065 
0.01185713289246826 
-0.01999818661824275 
-5.660794350712633e-05 
-0.007454282186861815 
0.001448870003829147 
7.24350824950207e-05 
-0.02193542838730509 
0.002645164307822596 
6.184719801153002e-09 
0.0009771097436729768 
-0.01367513007047125 
0.03981113969521795 
0.0260780976746886 
4.241563686253869e-05 
4.319625618354906e-05 
0.01471974896403709 
-0.005193137424597871 
-0.001577854835980435 
0.003721848711348192 
-2.5332320918311e-06 
-0.1421999469000995 
-0.01230479622368825 
0.001026406784737831 
0.0007055541795594292 
-0.02606025101426848 
-0.007445693780220908 
0.001429703863215969 
0.008502823247287116 
-0.0007518631280585752 
0.007648726152164626 
-0.04749370088944775 
-0.006700142731141803 
0.01427300166695494 
0.001832172424464817 
-0.03574704263153598 
0.01838844287254601 
9.828377467035067e-05 
4.140106530182809e-05 
-0.03250920764336014 
0.001836580213444967 
0.003338478936778258 
0.0141532123559934 
-0.002599425976976488 
-0.008614199075413102 
0.02698955214726231 
-4.525759358851684e-08 
0.05301135338047772 
-0.002414258665801787 
-0.01418409280440863 
0.001915476720711477 
-6.070277219566927e-05 
9.585468718428085e-05 
-0.03738580539645903 
9.075023121399668e-05 
0.0001111904943809841 
0.003368267817753018 
-0.00885096079468709 
-0.007846760676000871 
0.02857779729661349 
-0.006266056634346568 
-0.01897066209377831 
2.345767043595221e-07 
-1.90406312131124e-05 
0.02127168737333833 
-0.006850457504062819 
-9.360983944612822e-08 
0.0007385895756717123 
0.004369895531849616 
-0.006287794303320406 
-3.715101431355449e-05 
-0.006996877436626596 
-5.813911601403436e-07 
0.0108246708595967 
0.004812862114635623 
0.003508441463090486 
-0.008734396474476299 
0.004598961149539975 
0.005709269182247209 
-0.005741339695801368 
0.01088962296801738 
0.005589785236906214 
0.01864424316886048 
0.01569914120435948 
0.00258228751791186 
0.01774974675564644 
-0.03523727070899899 
0.001231008899909893 
0.002378364463852737 
0.002629441015113608 
-0.03074159330321225 
0.00385918264795292 
0.01611794985330631 
-0.0003669045986727772 
-0.0181655939225468 
0.009012673427051927 
-0.002376417939982649 
0.0002575446503220576 
0.001235077005847571 
0.01155881965221473 
-0.004348712822401111 
0.02265575129720229 
0.006879903490384722 
-0.007375580285724934 
-0.007150793627154243 
-0.002564682661677888 
0.0138228635960082 
0.0007034021624548011 
0.007186914776622704 
0.02115943167421302 
-0.007837843532573495 
0.02214112696179569 
-0.02353639128280285 
0.001879004268630278 
-0.002515952976640084 
-0.007831700482799081 
0.001408689964193323 
-0.00190459856055305 
0.006911504930554107 
-0.03857156088023782 
-0.07771874644557765 
-0.003625061262943577 
-0.009362054550004112 
0.0004129462619580652 
-0.002173325388680186 
-0.002859268409475446 
0.00635313917410148 
4.16905832410015e-05 
0.007872409161524502 
-6.447207179718965e-15 
0.007864850374202936 
0.07196738068057261 
-0.008324873619146871 
-0.002804708724046006 
-0.006751232143369289 
0.02673556462881282 
0.00462346996879593 
-0.001477512883399436 
0.01778949273067965 
-0.0001014202566042519 
0.008717382958531436 
-0.006725105083996877 
-0.01698633960822804 
-0.01893281637255827 
-5.771964187258394e-07 
0.000585623169319896 
0.02697657178464955 
0.01092505270379618 
9.086849068752739e-07 
-2.568855668123874e-06 
0.001750839862937782 
0.01387502921042502 
0.0139656568667638 
0.002354546443982186 
-0.0004387861660714798 
0.02729479981740487 
1.136837407056923e-15 
7.103922947795112e-05 
-0.001317488198940823 
-0.002757335052483823 
-0.001721145870471299 
-0.004969555122508969 
-0.009492017863770583 
-2.988016558931514e-07 
2.22948419012026e-05 
0.0008035754527466933 
-0.001698197258862623 
3.406697326533367e-14 
-0.004009724188694389 
5.828998306456702e-06 
1.973426296077686e-06 
-0.01364280825441224 
-0.004660222709339139 
-0.002608236663722323 
0.006439001558788425 
-8.952952810533526e-05 
7.273252907378944e-10 
0.005658494113774898 
0.005490082771300559 
4.536048845196213e-07 
-0.002810430187550466 
-0.002941645243211649 
0.0006373925531554 
-4.206230659212237e-07 
0.001317059002287933 
-0.005929081929263948 
0.004316949920131404 
-0.004996761937870886 
-0.002120502382437627 
-0.00543711919345241 
0.0002897831057255893 
-0.001662473722064921 
-0.003941604811355413 
-0.001207847862265782 
0.008955979770533307 
-0.002814761443486405 
-0.001769507650185336 
0.01127330025395868 
-0.009492017863770583 
-0.01540519289057221 
-0.00391999561945459 
0.04909380534790058 
0.004330886321832403 
0.005069426690063578 
0.0001076014464672889 
0.000459323281815679 
-0.04121488553937103 
-0.01276166793140224 
0.006521352794562606 
-0.001718359749722701 
0.003368267817753018 
0.007683280588673125 
-0.0008211269783403622 
0.002579898722797893 
0.005328146833262452 
0.0004256210606423029 
-0.003143986979219441 
-5.954379174595829e-07 
6.308693437425371e-14 
-0.00276404785638196 
-0.01866658921000347 
6.308693437425371e-14 
-0.0187161785135323 
0.01024424263290833 
0.007398970523732919 
0.0213778714667375 
0.01139966211637129 
0.00255895798640799 
2.573329196466509e-05 
0.003924235616066868 
-0.01747488619295583 
-0.01212326910475247 
3.811660579371105e-05 
0.004243936240427797 
0.02989182727370653 
-2.75991922112364e-11 
0.04158782959225589 
0.02031079300444048 
0.01075902783840157 
0.001861772299434493 
0.004985830895092625 
0.007681433670188207 
-0.008961045275170174 
-0.1064426009916227 
-0.01133237129844954 
-0.003791438551002235 
0.00999993377262556 
3.109713210888781e-09 
-0.0006791768710994298 
1.978882774319354e-06 
0.00450783834956826 
-0.009892125721243162 
0.003174985075201686 
0.01577879435995289 
0.004321283469676036 
0.004435302418925197 
1.448664017137738e-05 
0.01315015088644099 
-0.006345104928478167 
0.04146264174316958 
-0.0003697327109893274 
0.001202100735302308 
0.0008855424107389638 
0.0001071509619424478 
0.002507922965293304 
0.002267735508213502 
0.00567875041433874 
0.002023700376462971 
-0.008741958570943729 
-2.957834573481491e-07 
-2.161935837167727e-05 
-0.005203953964393703 
-0.01358443541850968 
-0.001302889991749135 
-0.008620020981236289 
0.000556836024147868 
-0.001094801266046016 
0.002634593363819131 
-0.0001273121981175699 
-0.01854106501859653 
-0.005277465777888624 
0.01217413114913049 
-0.0003305420239315945 
7.394262047037321e-16 
0.0126083888144842 
0.005336537603504675 
0.002023700376462971 
-0.001549115438510389 
0.02172654937735364 
-0.001220905417438425 
3.179944761126888e-14 
0.000874967751751038 
0.03167445171074037 
-0.00211141451508657 
-4.108341773179612e-06 
0.004321283469676036 
0.007580412582289738 
0.001333968639522602 
-0.0005950059511408661 
-0.001662473722064921 
9.186420386267113e-06 
-0.003940887684882469 
-0.001115334025733832 
-6.700782627656302e-05 
0.003522620422172072 
-0.003947672777070551 
-0.0177478933628271 
-0.0177478933628271 
0.01266492273175467 
-0.002353311212333969 
0.004212906313712043 
-0.002160400336674908 
0.01312523514514765 
0.009048342712506046 
-0.001345987586153344 
-0.004358857749748053 
-0.01843936972759622 
0.003802433200930364 
-0.004190629644490212 
0.004330886321832403 
-0.006155727331606945 
0.001855252121782903 
0.0005727050111727595 
-5.38053481029698e-08 
-0.002467848243538778 
0.002035415312361127 
-2.347507407581602e-11 
-1.212296106629101e-16 
-0.0004316949396812075 
-0.005342766454021787 
0.004604675375429503 
0.001211619632528977 
-0.0009239077218112377 
5.674577951580585e-16 
0.01488397514187275 
0.03348398378331405 
3.220774397017445e-09 
0.02900272088586571 
3.156475815591194e-09 
-0.003468386051941576 
0.001034112253345701 
0.001036643739887554 
-3.675020944851106e-07 
0.0009192717392310323 
-0.003100831309427077 
0.02128434909197882 
0.01024514283397153 
0.003892127801194563 
-0.00255160392130934 
-0.002074586968045716 
-2.160710249959017e-05 
0.000568718079388778 
1.289718122495003e-05 
-0.05497987673626571 
0.00520400134002517 
-0.0006206411281733516 
-0.003555367791275717 
0.0008187208200269794 
3.133862451305791e-14 
0.006218256655383908 
0.003654580391842513 
-0.001797973022618955 
-0.003450398361803614 
-3.071542071371711e-05 
0.01231503544486314 
-5.101053456428294e-05 
0.006397725907765436 
0.05629555845471732 
1.436485809089037e-05 
0.009647035756977456 
0.002037852127344953 
-0.005816258574880212 
0.002281619603163655 
2.228478691417602e-07 
-0.005998545680299896 
-4.35906608224027e-08 
-0.001216400679544796 
0.005231430426540328 
0.005733179206884204 
0.005681164140567577 
0.01312523514514765 
3.109713210888781e-09 
0.01312523514514765 
0.01312523514514765 
-7.892973194939839e-05 
0.00947472956086309 
-0.01548012860249877 
-0.006725105083996877 
-0.006287794303320406 
0.0003690827529112805 
-2.289167600561659e-05 
-0.01522552122416521 
0.005979989925248747 
-6.098145747859335e-06 
-2.160710249959017e-05 
0.0006363578249834494 
1.081657266150528e-06 
0.01193884751021278 
-0.002007769701637884 
-0.0186969493169876 
-0.009456041767251313 
-0.009456041767251313 
0.02128434909197882 
2.153479047270339e-05 
0.003106170980618212 
0.05629555845471732 
-0.003376053314090333 
-0.003442031108012415 
0.01289667389833284 
-0.003925888738317541 
0.01625165760700601 
-6.992121002774614e-05 
-3.036638184191171e-05 
-0.007759331128010935 
-0.009061841678808746 
-0.004191001305561201 
-0.004109622639437885 
1.448664017137738e-05 
0.006189426632044704 
-1.177994511550907e-05 
0.009858603377566473 
0.004280234659182274 
0.004158860244225043 
0.003912781781271089 
-2.615442969131966e-05 
-0.002313974539455334 
0.00100858256452721 
0.001202100735302308 
-0.003156906146142998 
-0.006910412844240626 
-0.0129561396770476 
-0.002942187646625233 
0.006512210606354834 
-0.001316858580011038 
-0.003002910320706228 
-0.002798558047015351 
-2.318071578445504e-11 
-2.257353721728077e-08 
-0.01565929675765221 
-0.01211372159618148 
0.001856653353626775 
-0.007768052705411284 
-2.957834573481491e-07 
0.004331061554676881 
-3.629449035324084e-09 
4.758192129603674e-05 
0.02726324024645381 
0.0112957173603489 
5.813577676015555e-06 
0.00170974487085394 
0.002703452228874012 
-0.01881613042187871 
3.23318554408543e-06 
0.006218256655383908 
-0.01753308035688602 
-0.003827505724704242 
0.0043660967797343 
0.005782847400238871 
-0.01515762592330311 
0.007539305297727605 
0.004349941509151638 
0.0007992318016524288 
0.01528684385353062 
1.440350306857164e-05 
-0.01192862228485489 
-0.02231089490196967 
0.001615232490870289 
-0.01741884268641921 
-0.01741884268641921 
-0.02592085030344352 
-0.002445219939311597 
0.01386551702160722 
-0.0006794423718215278 
-0.03381997464044473 
-0.05562121535914991 
-0.01130532287060597 
-0.002573313790071374 
0.002089209911840145 
0.01074863552042602 
1.141025533698201e-05 
0.05309966558765473 
-0.00691118586115589 
0.006484459355650694 
-0.007013379694841636 
-0.01242249645540943 
0.004089864825519368 
-0.03014645929185255 
-0.003989486004341502 
0.009327632212944359 
0.01145583739528156 
-0.006922462415797664 
0.005644684913334429 
0.01046286085308066 
-0.00152860761006255 
0.0278657846243494 
0.09891333837230873 
-0.008011599950131015 
0.01441896226746428 
0.04119222457474001 
0.004048570809023363 
0.05555860968664891 
0.01068918948345721 
-0.006863720741214837 
0.005531804307772958 
-2.67281140831603e-07 
0.01539722433842061 
-0.01128265268989564 
0.000890677367207987 
-0.01541037900962886 
-1.129248046604241e-07 
0.02128997103540994 
0.01768773332336328 
0.01961861266909199 
0.0008918297462103326 
0.00289015456507565 
0.002344019388975776 
0.009675117989767086 
-0.003584719025561085 
0.004690484594948019 
-0.003901367738511941 
-0.001861246633987322 
0.007279599654558279 
0.003745708014638363 
0.02066404111253095 
0.01420934268312806 
1.136837407056923e-15 
0.006397725907765436 
-0.00226865374831172 
-0.002250837437068779 
0.008904989214827616 
0.002266671773277995 
0.002332527951311726 
-0.001650491929472716 
-0.01167843439542017 
-0.001744228969470704 
0.002707187531481851 
-0.009798041049899642 
0.01061747313189385 
-0.09694745690995951 
-0.08886850216748689 
-0.00120277641149036 
0.01182056163194651 
9.202396769541434e-06 
3.331835583118852e-09 
-1.61555852529726e-08 
0.01387662668053556 
0.004691739495388773 
0.01664587902554684 
-0.001228241125463303 
0.01438112879239723 
-0.02547955270505999 
-0.02090303008160438 
0.003844305682352696 
0.004409832693980742 
-0.001331918668536245 
0.0001086501935086305 
9.225038684994634e-06 
-0.00537070977320156 
0.0002808842560552356 
0.01909525148904141 
5.797145856692384e-06 
0.02212427643477625 
-0.0002747746990555022 
0.0009233341774722312 
-0.002338882320446573 
0.006242377238291241 
0.0009072936930473088 
0.004489333382383755 
0.004400888955181062 
-0.01051590771546042 
-0.006906864680861662 
-0.001232396214015341 
-4.35906608224027e-08 
0.001370860509369289 
0.002928383301663666 
-4.216456030366845e-06 
-0.002139311988696787 
0.01288483122254664 
-0.00572169943147279 
-0.0005828629725464289 
0.0005709825900868506 
0.01288483122254664 
-0.01051580113694078 
-0.01540570490729589 
-0.006281653879197096 
-0.009721193669139655 
0.004911672170860647 
0.001825623594583136 
0.0001895476488865006 
0.01361308958168971 
0.005268202834379656 
0.002794892618453107 
-0.004037470864035648 
0.001615033231715729 
-3.622857535368152e-05 
-3.599332486436489e-05 
-0.003002185798715769 
3.16336331169067e-14 
-1.9194184690641e-05 
0.01168772775672256 
-0.001788861672842738 
-0.001935872579564942 
-0.00294773100761316 
-0.02498149376216109 
-0.0004694551737015256 
9.216164188909079e-06 
-0.001689471158572476 
-3.245825014545468e-15 
0.000309941699780619 
0.003012044587264343 
0.0002984623775670267 
0.00231544365015163 
0.05043994765204433 
-0.001180563791649157 
0.01745846586656689 
-0.001603040000922504 
0.01137384921334971 
-0.006037970355195079 
0.01200021498987304 
0.009704434785598081 
0.02134837218929802 
0.005814472346959999 
-0.0108016979825393 
-0.009784406464270158 
0.02569450327138539 
-5.316646266232735e-08 
-1.222746373355498e-09 
0.002485583164632002 
3.134954389558756e-09 
-0.008741958570943729 
0.03112014208730511 
0.0006456964094178189 
0.005154723235534495 
-0.002335316861346565 
-9.026374440509505e-05 
0.00129114375895593 
1.451412905218958e-05 
-8.417833983596142e-07 
-0.005860418679931854 
-4.38825625689672e-08 
5.680637737626467e-16 
4.761670340214499e-05 
-3.098251132856096e-05 
-0.008372622493912933 
-0.005965864047795155 
0.001196661365461891 
0.01202041737198202 
0.0204480219631857 
0.01667038188331469 
0.02673556462881282 
0.04731846034668068 
0.002479784034349502 
0.001341656029494547 
-2.293511372104718e-05 
-0.006569261702254863 
0.007310841500821836 
0.005799369821383827 
5.778200935589525e-06 
3.275670409050603e-14 
0.0008000399227851965 
0.0008000399227851965 
-1.913512566081272e-05 
-0.006277037606709421 
0.002006975579960636 
-7.947158365612319e-05 
0.011768576797547 
0.003729514845952243 
-0.01077784515489606 
7.009701651010722e-05 
0.0009997499864336267 
0.0002170141951172724 
0.0002170141951172724 
0.002187125192842141 
0.01288483122254664 
0.001232551221748992 
0.001094087926373781 
-0.002071374415103563 
0.03800059907670986 
0.002326570473228563 
0.00579733063484503 
0.005230292806099024 
-1.373570892673905e-11 
-0.001239224181533364 
-0.002350432356595317 
0.0009246355101071999 
0.0009044642950202497 
-0.005816916038691134 
0.005910246296204222 
-0.001671340248581628 
-1.38108702191933e-11 
0.004171804788700357 
0.01204633674419387 
0.007267945048588182 
0.02335445395462352 
-9.532625179063214e-05 
-0.002499811811522314 
-4.026827055464383e-06 
2.306651591920695e-05 
0.008935618133158924 
3.36262752833839e-06 
-0.06434076870721889 
-0.0002763656195632109 
0.006136263036760769 
0.003697642678386069 
0.01496264871391108 
-3.677336596053185e-05 
0.005348533034065141 
0.02374738427510401 
3.787103621432151e-05 
0.003753281499809603 
-3.207951915726583e-09 
-0.004297496525566968 
-5.832137029627579e-07 
-0.005371488658117829 
9.308905991430078e-06 
-1.723262426989967e-08 
0.0006518458990315235 
0.003012044587264343 
0.003756143299046567 
0.00217761464401673 
-0.005342766454021787 
1.482059292573864e-05 
0.004212906313712043 
4.117434853857747e-05 
-0.005904933877781322 
0.0001100083209276791 
0.002006975579960636 
0.006763671487932987 
-0.001196718379874253 
0.000277916537380744 
-0.001196718379874253 
0.0001087994382800403 
-0.002581890400623873 
0.00450580900039783 
0.01320063590941494 
0.005132350304815281 
0.004897813581654102 
-3.090347430992649e-05 
7.29336328407845e-10 
-2.262879679425842e-08 
0.002848884862216073 
-0.002263323248694965 
0.05487570670726416 
0.004652332912804589 
0.01383864656430284 
3.528366651293889e-14 
3.406697326533367e-14 
0.0006452615970197176 
-0.003635680485616167 
0.006886600571192863 
-0.0001178277338301031 
0.001828748412633293 
-0.001877105324230534 
0.004575121981046757 
0.0006011419024485527 
0.1047676753696566 
-0.03103304917471309 
-0.01517976219754754 
-0.002538357594384834 
-0.006801770205745126 
0.01286971790848829 
0.02011833174431616 
-0.005617378961800396 
-0.05348404674435011 
-0.009031889739479869 
0.01736399560184736 
-0.004770607498178015 
-0.02204701514673563 
-0.001265272562400982 
-0.02622628740653769 
0.04387682478729837 
-0.006153364813339277 
-0.006790505846315369 
0.008865167801024735 
-0.001096147621581135 
0.02688601179947317 
-0.08366379663585756 
-0.02016169084012496 
0.00822480467911758 
-0.004111957103208104 
0.001829098827248694 
0.005523316157658434 
-0.005849254338556473 
3.697413650749083e-05 
0.006967997281721506 
0.08718843194173546 
0.03281954025623358 
0.01661718837156787 
0.02097889796313553 
0.0001056194147837284 
-0.01632056947150744 
-0.005637497949620425 
0.008506404308165533 
0.006096121474500582 
-0.08552149465772294 
0.004093493809391554 
-0.004189660881529431 
0.005014180120748488 
0.03752148533564376 
1.289718122495003e-05 
-0.03665853039601902 
-0.005353141006465997 
0.008211829081436885 
1.132712290752038e-15 
0.01486600595459764 
0.03771752859672891 
-1.634988426616277e-06 
0.02374319541750439 
0.001783250754566174 
-0.007511164867579076 
0.001979208546625245 
-0.01491155553298969 
0.03053629420589254 
-0.003806311933947798 
0.002997491915521509 
-0.03092390803345263 
0.01537051130770202 
-0.04312408688575935 
0.006916846969570591 
0.02200529982319143 
0.009781915794863842 
-0.009668671719656526 
-0.01292540783088127 
-0.005330437330618238 
-0.03826577788896359 
-0.0003080098917999788 
-0.009198561640975801 
0.004333037784108851 
0.02951139758405789 
-0.02215130139984544 
-0.001960183890784631 
-0.02506689412237869 
-0.04102644562117185 
0.002958722423760812 
-0.002287109589207881 
0.00336730959928172 
-0.04374910890124821 
-0.01292279749524409 
0.009659234537629117 
0.01681209570574117 
0.0004325172835390473 
0.001983954876482938 
0.02469561048057445 
0.06454504282450935 
-0.05226380135263738 
-0.02031578815908527 
-0.00830856176921709 
0.002370236546536665 
-0.000967275217970115 
-0.0182240708193314 
0.008505258126148642 
-0.01319391122462261 
-0.05193551828405854 
0.001860164883213115 
0.01614227752433544 
0.005038344252639529 
0.03403177927382574 
0.002019801870458149 
-0.001417233550254453 
-0.003527218582707296 
0.02495586299821149 
-0.05042031352521367 
0.004859952038688004 
-2.474368668167415e-16 
-0.005076468682483884 
0.1234089613473085 
-0.007705539632019641 
-0.007717247314852276 
0.006170053115409699 
-0.004393459829182256 
-0.0005978251688865825 
-3.430964686489811e-05 
0.01703437213835324 
-0.002094052228481865 
-0.001253604423730762 
0.008602680551171018 
-1.487595706601203e-06 
0.0005771749501440364 
0.007285885003723323 
0.008515436594696429 
-1.273812727993624e-06 
-0.006356139893566923 
-0.02814433110659777 
-0.005719355261334392 
0.01174987274832252 
-0.007197018028852773 
0.007077807115847989 
-0.0172257159728458 
0.000898677855674168 
0.001272715649966899 
-0.01212326910475247 
-0.01610426123647912 
0.004251035390341907 
0.02029368501757931 
-0.007444594609508554 
0.0450061182023283 
0.0005322718047288327 
0.05049312834677858 
-6.339139939563477e-09 
0.001594474122237735 
4.256606310630959e-07 
0.02148873059272835 
-0.03237813843913197 
0.01210558155493638 
-0.0374610504432532 
0.02905279309917825 
-0.007912219931426358 
-0.07117125572915538 
0.0031476932315297 
0.01984786662021875 
-0.01257434827674337 
6.297169252096289e-09 
0.00672786797087365 
4.4569573828281e-07 
0.008326370334564986 
0.01185483717048586 
-0.001308992446405257 
0.01344055738666612 
-0.001184760156779004 
1.14169180176654e-15 
-0.04178455162084461 
-0.02003667106763827 
0.004913988693150594 
-0.01321891433764648 
0.08155136943457746 
0.004068035091756801 
0.0106074127718621 
-0.07365331540636899 
-0.008297589634012463 
0.02645240845689325 
0.01497961637769743 
0.002256917993461276 
0.003471982980370484 
-0.01287899165330905 
0.003090659581680632 
0.00947130583968761 
-0.01044304678121378 
-1.261307631789219e-06 
-0.009668380084797767 
-0.02340488661976943 
-0.008450879865600601 
-0.003376134365803527 
-0.004558476756109819 
-0.008222814437430547 
0.008373704464301518 
0.01107643469013321 
0.1011876370549663 
-0.02086932273623238 
0.0256641518978514 
-0.0004998187705877105 
-0.001746368258200142 
0.003721374882505421 
0.002998573307453254 
0.01185282659852181 
0.0119144677425089 
-0.01195147369962005 
0.001658596132851328 
-1.73597848088789e-12 
-0.001875491682737986 
0.00636527807197055 
-0.105752424057368 
0.011559040444587 
-0.02728526246219374 
-0.0115915412823598 
-0.03175959573545719 
-0.0102895119948617 
-0.002338882320446573 
9.158154477381049e-06 
-0.006792734949807963 
-0.0009741244157483585 
-3.036638184191171e-05 
-0.001024482469945127 
5.073833912819291e-05 
-0.01907156760315357 
0.03715461294764191 
0.005594572029890211 
-0.01363069802993647 
0.004397412668011971 
0.005766956527097865 
-0.001118359982017805 
0.02115539978403764 
-0.007115179880712276 
-0.008080911915268024 
-0.008607307932123939 
2.189671972439667e-05 
0.002901125496547411 
9.202396769541434e-06 
0.002644040839684925 
0.002997522333293362 
-0.0007019459901388024 
0.0006373925531554 
-0.0007826990436373332 
-0.005336413580721011 
1.456272546641189e-05 
-0.001200629272813259 
0.0001072063371165457 
-0.001971524508889341 
-0.07127332336964941 
-0.003927828406661029 
-3.973842488939617e-06 
0.001880603748041408 
-1.957806838443133e-05 
0.001877821789832013 
-0.001971524508889341 
-0.001015891328148976 
-0.001015891328148976 
0.000283444399013951 
0.01078438463596008 
-0.0001230516398657925 
-3.580026488570447e-09 
-0.01234893440729603 
0.005914111308762882 
0.002782872504293195 
0.006798841829578382 
0.003283911242914521 
0.002715239333423616 
-0.005125988539709555 
0.005492864178712106 
-0.003630955986818565 
-5.368358910334271e-05 
-0.003896506358128298 
-0.004021844887622365 
-1.612973631658593e-08 
-0.00262101226482599 
1.620145817368702e-05 
-2.286518498487709e-08 
-0.004594433540438712 
-0.009798041049899642 
0.002146261860472146 
-2.628974455295332e-05 
-2.628974455295332e-05 
-5.967049365061194e-07 
-5.880695539232701e-07 
0.0001072063371165457 
-0.00227660600652267 
-0.004323765718260868 
-0.008444950704750357 
0.0006363578249834494 
-0.001835888928503466 
-0.008798844906968846 
0.007368160735614642 
0.01510671442281231 
5.617825179469126e-14 
-1.596332264973948e-10 
0.03915696662634495 
0.02287465010249956 
0.03211636270961817 
9.187298930905801e-07 
-0.00651291828550781 
0.01688998970591807 
0.0005766521606428477 
0.004462083085026863 
0.0007592269644892461 
0.03512319932581361 
-0.004924757916833077 
-0.00135214024922887 
-0.001913306791921945 
0.01278561706953455 
0.01219364537405041 
-0.0398802056888958 
-0.005686692562408222 
-5.646240233021206e-08 
-0.001367811661914147 
-0.01245461111276005 
0.009644621163963916 
-0.04506427876040207 
0.009701306796660562 
0.001802524550255847 
-0.04689477576287083 
-0.007044722945569628 
-0.04914627858814499 
0.003583216897458065 
-0.02967169355498427 
0.01298254836366448 
-0.01853473700690281 
0.001632632897728782 
0.009659248721433634 
-0.01924569706802121 
-0.0007455587314517177 
2.858212708839137e-05 
-2.444229578846912e-09 
0.04747334063983589 
-0.0206785654635032 
0.0171385263510292 
0.03227538117019868 
-6.518224839626565e-15 
-0.01760996968807891 
0.01384404836657032 
-0.00840197390343481 
0.02267950642115939 
-0.01028708726116185 
0.0185632576063523 
-0.01073475369301618 
-0.0426915246777089 
0.0313008671370132 
-0.001226320312130292 
0.01173296882344321 
-0.004204926724147406 
0.0003789261835991034 
0.0005541080323997646 
-0.01252691815732802 
0.001728357145814071 
-0.004188104456970584 
0.05725005017270524 
-0.0173464187900366 
-0.01401518413404504 
0.01034346064111913 
3.946852592161811e-06 
0.001140501122250963 
0.009029707523805731 
0.001274785106308689 
-0.0003047119737573925 
-0.01122374490905017 
0.005003532069865148 
-2.444229578846912e-09 
-0.008736144151640373 
-4.719131110964695e-07 
-0.00441561267985321 
0.0153586734845796 
-0.01333994174322152 
3.702535735740788e-05 
0.001533328259887791 
0.006597143481495265 
-0.000838892821130983 
0.005929088149258291 
0.005929088149258291 
0.004882589464257633 
-4.125341608065661e-07 
-6.005546429669212e-08 
-3.658908849312575e-09 
0.0007699219019374036 
-0.01142121647589786 
0.003106170980618212 
-1.19428014996037e-05 
0.0004952783123918896 
-0.005277465777888624 
0.0217781561202974 
0.004582019925520841 
-2.976926956735289e-05 
-2.976926956735289e-05 
0.001319702802342112 
0.005968778898127196 
0.03185005587478268 
-0.01014385426344867 
0.000914878104145739 
0.0006370312195086556 
0.003219173969695263 
2.139502925840892e-05 
2.094929948222387e-05 
-0.002831782145950112 
0.00357913945863937 
-1.372828014373958e-11 
-0.01122048169549439 
1.129219500548192e-06 
0.003635459098744647 
-0.01272822427182634 
-0.009492017863770583 
-0.009492017863770583 
-0.002079891579639031 
0.00999528430786268 
-5.254097486625531e-08 
-5.771964187258394e-07 
-2.929284046717083e-07 
0.0002789092886296241 
-2.327817223457585e-11 
0.0008964422708332293 
0.002308846944595076 
0.002737106355602315 
0.01512495935340515 
9.970892406425845e-16 
-0.005738983983911593 
0.003570969174149903 
-2.927255456652467e-07 
0.009580781646680792 
0.003682801089851999 
0.01233138059011632 
0.01206016389373768 
0.005611126345346094 
-0.0002723277272098919 
0.001963552831645621 
0.002030044264791674 
-3.327301168670393e-07 
0.002006975579960636 
-0.0001007071454249228 
0.002725078895161384 
-0.02931443456861233 
-0.02311116637526034 
2.174348175498161e-07 
0.0177660201939321 
0.0007860458619741877 
0.02567316398302824 
0.0237410025160865 
0.01309506238424009 
0.03440035654647131 
-0.01522552122416521 
-0.001792679774175187 
0.005968778898127196 
0.004249547245410304 
-0.01739990988129955 
-0.001188208969991325 
-1.61836819230131e-08 
-3.213591774906221e-09 
-0.02823537784157805 
5.871911218674046e-16 
0.02804771988789736 
0.008515436594696429 
0.01315686365740984 
0.007916435045040261 
0.00383082405716355 
0.006218256655383908 
3.257135066630857e-06 
0.02181088757317626 
-2.459893335481904e-05 
0.003253544531462531 
-0.001899271544534256 
-0.007425598454454619 
-0.00286733512106121 
0.0132087324696755 
0.002493980405058043 
-2.345274649602352e-05 
0.003045265667276256 
-5.76884251921325e-07 
-0.0009675155506190932 
3.318382429276795e-06 
-0.02333828458203924 
0.001764240379272566 
0.001547390156318818 
-0.0002763656195632109 
3.257135066630857e-06 
-7.184166056792649e-07 
-0.008704577040740466 
-7.717573790616941e-05 
0.002267735508213502 
-1.598381472008133e-10 
5.687841874312596e-16 
5.687841874312596e-16 
-0.006356139893566923 
-0.02137652754014871 
0.003852466172787291 
-2.266103154751567e-08 
0.001225082072891333 
0.0018614573297883 
0.003346522813066941 
-2.976926956735289e-05 
-0.002079891579639031 
0.02271766168447491 
-1.085552981836928e-05 
0.01963920841495864 
0.003983923268205617 
0.008166481098717494 
-0.01419054157683564 
0.00999084146630754 
0.02163704837662549 
0.005929088149258291 
0.01622824614064305 
0.005122348618739565 
-7.729557600857166e-05 
-0.002831782145950112 
-0.004996761937870886 
0.005646750618347191 
1.250034487955939e-05 
0.02973210899780724 
0.023820464506521 
-0.006831106629827949 
-0.01342022494361008 
-1.17256596541571e-05 
0.007445505368001403 
-1.222114789423456e-09 
0.04719331230595357 
0.002816571692314551 
0.002334500799530439 
0.005929088149258291 
-0.002608236663722323 
0.0008811232508088345 
-8.290191078001049e-07 
-0.001214925668171362 
0.006656001724871543 
-0.0004275225935140511 
3.331374555555039e-14 
-5.841695015835444e-07 
2.306651591920695e-05 
0.02850077185716902 
-0.001102094135882615 
2.085900562811934e-05 
9.900256362788517e-08 
2.30225100935116e-07 
-0.001937517597079268 
0.0114843532906059 
0.001155275657944599 
0.009375707677967525 
0.0003070581571824825 
-0.009417811558954083 
0.005929088149258291 
0.005929088149258291 
0.003351146121922554 
7.447361664016917e-10 
-0.0008425385755414183 
1.097852292197351e-06 
2.079681419809774e-05 
-0.003519381884090711 
0.0005900393097362977 
-0.00886753822305089 
0.004165909205785507 
-0.00173098098973216 
-0.01326210291055062 
0.001812392684219557 
0.01079010878359782 
-0.003872453849741348 
-0.002113183934889224 
-0.002055075553651161 
-0.0004030474527550236 
-0.0004030474527550236 
0.006666322454209848 
0.001033525323813409 
0.005929088149258291 
-0.002192347464937741 
-0.001250905459759004 
-2.820696263014364e-10 
2.115371685368046e-05 
0.007925949515184076 
0.008953669886956339 
0.02043214057865252 
0.006218256655383908 
0.02582598043533657 
0.003602209057919238 
-5.50902590520654e-08 
0.00898435833926726 
-0.0005838442233405595 
-1.019531366068766e-06 
0.001869341801441902 
0.06867507684727475 
0.002041440062986882 
-0.0001767994196971971 
7.2617080614791e-10 
0.01614068806590839 
0.00101070096387476 
0.0005710437022056033 
0.0104482950794795 
-0.001246891175939704 
-0.001930088135799694 
-0.00247782073154665 
0.0068716766172677 
-0.002125884268129182 
-0.00572169943147279 
4.748800960921567e-05 
-3.00231328887416e-07 
0.01612736295825605 
-1.304815577459717e-06 
-1.628482993498282e-08 
-1.628482993498282e-08 
-2.333222371148111e-11 
0.007137748433000964 
0.06867507684727475 
-0.006295072793264556 
0.02128434909197882 
-1.485688532619047e-06 
-0.003074272156390341 
0.006390379350432653 
5.893764954310698e-06 
-0.0007337386697915437 
-0.001648264544951951 
5.708470655526491e-16 
-0.006395865767907142 
0.002150159885243337 
-0.00971043838095946 
0.001211619632528977 
0.002030044264791674 
0.004237081551695237 
0.0005211985186025133 
0.0001202373278700996 
-0.001648264544951951 
-0.007694583447040556 
-2.264447856615408e-08 
-0.001106964501381674 
-8.679892665542622e-13 
-1.383553232147143e-11 
-7.242479092975432e-07 
-0.003964431825509035 
0.001539457801041726 
-0.006624348392788435 
-0.001814360797563923 
-0.01215378766872736 
-0.005324937422478794 
0.00252355329523342 
-5.543581319693977e-08 
-5.543581319693977e-08 
-0.00308786093228225 
0.001411038026900227 
0.001475400208468972 
0.002528332752232371 
0.0001202912856704343 
0.01670610375628711 
-0.005330484232290617 
0.002833028333188889 
0.01391167401423048 
0.0003587351028520304 
-0.0001005357776220917 
0.01137412159482645 
-0.004123740352195677 
-0.00256683608175754 
-0.00398309538831371 
7.391543174396296e-10 
0.0002808842560552356 
-3.353648576118517e-07 
0.004607464382732518 
0.003351595416644988 
0.001869341801441902 
0.001869341801441902 
-0.01922966141042152 
0.001536029921050476 
-0.005373021855381331 
-0.001015891328148976 
-0.01121872902042285 
-0.005554542864010516 
-0.001648675844906056 
0.002371721794427394 
5.674577951580585e-16 
0.01061747313189385 
0.003564245275389135 
-0.0006233395678624999 
-1.621433283574618e-08 
-0.003002910320706228 
-0.0004145302861677736 
-0.005765045639291471 
-2.649792126324538e-05 
0.001543806396447298 
0.001543806396447298 
0.000874122372282128 
0.0008754199314674401 
0.001678531651810322 
0.001561362662017731 
-0.002578820376370932 
-0.01545738628220703 
-0.002817147612891376 
0.01706095978814148 
0.005929088149258291 
-0.04274772739148319 
-0.01034190444248516 
0.001561264242878005 
-0.02126692582046054 
-0.001971524508889341 
-0.002684618135397717 
0.001277525739018339 
-0.0005462379629916488 
-0.00330232862086488 
0.002022430940991945 
0.002261061190656192 
0.002225631456898823 
-3.613255144483493e-09 
0.006690449117351466 
0.0006363578249834494 
-0.001744228969470704 
-0.007094006842780681 
-2.229640942128968e-06 
-5.591730896788221e-09 
0.002679077385675755 
0.01889249432653827 
-4.245534162503049e-05 
0.002919664610346354 
-0.005756090382727588 
-0.009501418734020836 
-0.02076875877572803 
0.0005459783961884675 
0.0008035754527466933 
-0.003588609236639265 
0.04204981172462789 
0.005519284253831277 
-1.619693224995698e-10 
-0.001339215634873912 
-0.01253607632006641 
-0.007807368251473184 
0.000687652566767485 
-2.834022387020139e-10 
0.004245777748414331 
-0.0116154959498822 
0.0001078512950269622 
-0.009819635186069991 
-0.01520014392166619 
3.150319232651446e-14 
0.01356468839409118 
0.005622319837757649 
2.159812809177453e-05 
-0.001233558186611025 
3.186534945408443e-14 
-2.318071578445504e-11 
0.001244689983782419 
-0.008119725521518191 
-5.734597273882248e-07 
-0.00211141451508657 
-0.002097539144557228 
0.01728412985399807 
0.01431216646454271 
-5.543581319693977e-08 
0.002848884862216073 
1.643093700295322e-05 
-0.001648026771567231 
-8.935457228649566e-05 
0.005715794061305975 
-0.00896542669357115 
0.0004787704405665168 
0.004635406420693333 
0.007663119211612729 
1.004343884103731e-15 
-0.001196718379874253 
0.02552920631526919 
-0.008595927378139114 
-2.976926956735289e-05 
-0.005539892744763026 
0.004859722587857541 
0.00373486160061593 
0.001005734374372378 
0.001867560468575396 
0.006147911009561272 
-0.002128629803795519 
-0.006063657381724474 
-0.005791620405611361 
-1.900224284374589e-05 
0.004321283469676036 
-0.001115334025733832 
0.002794892618453107 
-1.598381472008133e-10 
-3.123835493423053e-07 
0.02655752469099475 
0.006218256655383908 
-0.004996761937870886 
-6.054147582295555e-06 
8.945492058193668e-06 
3.274137330215042e-06 
3.244468777209745e-14 
0.004627652101598773 
0.01148467999127446 
0.006190984975005472 
-0.0006681307048536167 
-2.957834573481491e-07 
0.0009220207575901284 
-0.01640953802348352 
0.001302731014641384 
-0.001502508030399645 
0.03076949741222829 
0.003625917211345102 
0.01462975897909078 
-0.01625446272029757 
0.0006363578249834494 
-0.02872116895846314 
-0.0143153708374689 
2.1487676087306e-07 
4.748800960921567e-05 
0.002929034755649469 
-0.003690380202109932 
-0.02951083414693765 
-1.487595706601203e-06 
0.005165790354748945 
-0.0003224822449831692 
2.261989649179589e-07 
0.01149147054785301 
4.536048845196213e-07 
8.945492058193668e-06 
-0.006292225341647872 
0.02034620853108814 
-0.01142121647589786 
0.02063368929958397 
0.004011691998810601 
-0.001859804814332918 
-1.222114789423456e-09 
-0.001232631360114592 
-0.004298182922605471 
0.01742430275874743 
1.06899365538694e-05 
-6.37793755496104e-07 
0.0104482950794795 
-0.001240847611189463 
0.02802512235819334 
2.138749368425979e-05 
-0.001015891328148976 
0.0008274605585814423 
-0.002176515652922122 
-0.003658310427465184 
0.000874122372282128 
-1.487595706601203e-06 
-5.719756330923921e-15 
-0.1056668844736426 
-0.01717026103520835 
-0.0008002467315439275 
-0.001689017814223637 
-3.961615281279001e-06 
0.008826302019238128 
0.01026710273616258 
-0.007425188315290443 
0.002703452228874012 
0.004321595208220099 
0.002485583164632002 
-0.006526776156182976 
0.0170241944579444 
-1.169994548823118e-05 
0.01356468839409118 
0.0281804258403994 
0.009890225310632628 
-0.01753308035688602 
-8.632655557932695e-13 
-0.001814360797563923 
4.117434853857747e-05 
-0.00244283264580079 
-0.001239224181533364 
-0.00252882174344088 
0.001295882570040109 
0.008199286085530399 
-0.0007920729618275481 
-0.0035379624796176 
0.010690596225081 
0.01079010878359782 
0.0140581126880535 
0.005069426690063578 
1.891965225407284e-05 
0.0005211985186025133 
-3.213591774906221e-09 
0.01909525148904141 
-1.437457904903572e-11 
-0.001136481172442446 
-0.002614773597714103 
7.2617080614791e-10 
-0.001217667763585243 
-0.003566779982483993 
-0.003495444382834768 
-2.335242478271308e-11 
-0.00401390703586599 
-0.00148521511787465 
-2.333222371148111e-11 
-0.0008559326238252482 
-0.001923409630144222 
-0.00450548875219337 
-5.293350218458598e-08 
-0.003035550650276523 
-0.002069939945283679 
2.153479047270339e-05 
-0.01051090162165336 
1.438755234531818e-05 
0.001467257012912924 
1.438755234531818e-05 
0.0009358116663583094 
0.004317108316572059 
-3.036638184191171e-05 
4.748800960921567e-05 
0.01803060234780138 
3.186534945408443e-14 
0.0008035754527466933 
-0.0005815902676051996 
-0.001318458464241396 
0.009031746300970667 
-7.357221191402699e-07 
-0.005314262891059228 
0.001690559059394232 
0.001693551693832471 
0.02673556462881282 
-7.729557600857166e-05 
0.006450510075200123 
-0.0009640739257448928 
-0.0115915412823598 
-0.00380824213178032 
-0.002110107348079061 
0.002146261860472146 
-0.002825572097380151 
-0.002831782145950112 
5.680637737626467e-16 
-0.02787906978522551 
2.236753058834901e-05 
0.0008758936435537763 
-2.152733086246546e-09 
-0.0004265385261636808 
2.094004294600347e-05 
-5.169603294354697e-05 
-0.07268302711784622 
0.00129114375895593 
-0.0009974337281810502 
-0.03151875782526822 
-0.00128299028790339 
0.005855889530141802 
-1.274622312934564e-16 
-1.17453998218969e-05 
0.003922555536285669 
-0.0009271615051929521 
1.476359064527045e-05 
-0.007089531952241948 
-0.01736202591438038 
0.01103974107160328 
0.01699435000433995 
-4.025709796386186e-05 
-0.01038664748261652 
0.00327656873632606 
-0.003980240922601532 
0.002735164278478687 
-0.006342088923683166 
-0.0004259151505219232 
-0.005914750638751297 
0.01084621682852888 
-2.301190539642887e-05 
0.01098088369302018 
0.006535311411168405 
2.637184994147494e-05 
-0.009746158364322801 
0.008118538095574513 
0.01061747313189385 
-0.001648264544951951 
2.121058935104839e-05 
6.955987462108449e-05 
2.080806788548673e-05 
1.233292954633934e-05 
0.01147019406609725 
0.01252708438353678 
5.647662482035087e-05 
-0.01147571129873611 
-0.0009675155506190932 
-7.717573790616941e-05 
0.00579733063484503 
3.266998881575034e-14 
0.002861271318140722 
0.009430552618891225 
-5.334954643715739e-05 
0.003045265667276256 
0.005147716589273496 
-7.540522650047216e-05 
0.001012729696782511 
0.01527889589489266 
0.005952146018954544 
-0.007318523879146917 
0.0006363578249834494 
-0.02098204044839559 
0.01061747313189385 
0.01061747313189385 
-0.0002758421998285893 
-0.002470564013074026 
0.006134257228598504 
0.01320249144395138 
0.02145739258053552 
0.01000153668813429 
-0.01152055757912241 
7.218326577429899e-06 
0.02234875323686131 
0.003633108121628393 
-0.0001226319108693914 
-0.005460113513692585 
0.05332187696652136 
0.004289271269718172 
-0.01774428769200065 
0.02744422963986906 
-0.001637268645330174 
0.01312523514514765 
0.05755264038840499 
0.0008070783971803761 
-0.0117099308763062 
0.005140509844250465 
1.959643636236139e-06 
0.002507922965293304 
0.03595477164291968 
1.274159376642311e-09 
0.0005268525459235014 
0.0002253608949297757 
0.002032460984150867 
0.00067805050754226 
7.194575010403763e-05 
3.220774397017445e-09 
-0.007823379535018873 
1.384118299536241e-15 
9.99221346351106e-16 
-0.0009752840876701149 
-0.005495031758689948 
0.0002829908879757029 
-0.0005869106320772665 
0.005128751880869985 
0.007252107155405163 
0.00369521161811569 
0.01664587902554684 
-0.00615532219603943 
0.01060674841157663 
0.0002956795115750268 
-0.004031665814874425 
-1.287726313348689e-06 
3.179944761126888e-14 
-0.001197021500428855 
-0.003658310427465184 
0.0006363578249834494 
0.0001072063371165457 
0.01085469352625375 
0.0003439878965234205 
-0.006600871575384476 
0.01416820230288806 
0.04372724917398166 
0.01287013039675337 
-3.990064250026335e-08 
0.003589981781839879 
-0.002579574722360793 
2.261860640766803e-07 
1.117456797418579e-06 
0.008502333103542901 
-1.332784008483136e-07 
-0.02562678643993446 
0.001954917822631751 
-0.006368178037305757 
0.006725102259155817 
0.003762214839165026 
0.003288563992338097 
0.002146261860472146 
-0.0009669401668151853 
-2.286518498487709e-08 
-0.002764925487463999 
-0.003667126130037115 
-0.007920815087787882 
0.002876410319827432 
5.708470655526491e-16 
-0.009054116936143115 
0.007945310048625991 
0.001292449263260058 
2.085900562811934e-05 
-0.00400771019663604 
-2.929284046717083e-07 
-0.00536821743994213 
-0.005509947378586589 
-0.005170056409617295 
-0.001738172618880487 
0.001244689983782419 
7.256403672447167e-10 
-6.088751058913715e-07 
3.220774397017445e-09 
0.006105448115373637 
0.01079010878359782 
0.0098353848967681 
0.0129545364837564 
-0.004198855239632922 
-3.043386269045988e-05 
1.289718122495003e-05 
-0.02094212797134742 
0.005633507752102694 
0.00100747006354976 
0.00105214909497225 
-0.0005876601986566244 
0.02202655932764724 
-0.001563260770144715 
0.007367842170218988 
0.005658494113774898 
-5.877635970978648e-07 
-2.329518844096066e-11 
0.00129114375895593 
0.005055725536852435 
-0.02552476699371594 
0.02413798635014977 
0.008853714336466201 
0.01450522123122322 
0.01026602646264621 
0.01074186733562519 
0.0007992318016524288 
0.003654580391842513 
0.003304218248880043 
-0.008342051030866143 
8.416811725099553e-05 
0.02129766012957636 
-0.00522152339059829 
0.0001076014464672889 
-0.002404364451445768 
-0.01403648147689151 
0.001026770256340094 
-0.0003814035667664204 
-0.01072087162130003 
-3.996540951601282e-05 
-0.005307965234738368 
0.01925907225661343 
0.004201883429589653 
0.001094087926373781 
-0.002389144313689202 
0.002331247483344263 
5.684187035284614e-16 
0.006711790262844612 
0.000809161547076471 
0.0002938751528973481 
2.222305620245489e-07 
-0.01943269942848519 
0.01555978786335927 
2.345767043595221e-07 
0.01085520342409751 
9.993349420483597e-05 
0.02289484949470404 
0.005979989925248747 
0.01195908859736446 
1.916088853910028e-06 
0.005929088149258291 
0.007289780439341587 
