solver_type L2R_LR_DUAL
nr_class 2
label 1 0
nr_feature 384
bias -1
w
-1.560090347695975e-06 
-3.335523182102263e-08 
-1.526733778547032e-06 
0.0001471003296945597 
-1.270838855712409e-05 
-8.307850768405208e-07 
-8.018501011352546e-11 
-5.801438207019458e-07 
-3.15517817037457e-09 
-5.917504614698826e-07 
-0.0005205552290377782 
-0.004783952549116106 
-0.001691802103974878 
0.003333586574948127 
-0.005025388466055165 
0.0001391235263746085 
0.000152008555852447 
-0.001991591855942666 
5.944299890665771e-08 
-0.002028394156040912 
-0.006389415410002233 
-0.001120949104236711 
0.0004469086079487335 
-0.0004628508071339522 
-0.0003988050165722659 
0.002229082120210674 
-0.002627888080418377 
9.040776763740921e-05 
-0.0003785678526799595 
0.001636366516101242 
-3.166942713096643e-08 
0.001755167382757007 
0.005637173778469612 
-0.0001982515714399263 
-0.0001418215869565771 
-0.000477391611698843 
-0.001393545582736777 
0.006077918459270152 
-0.007471462766963518 
-2.969435968677289e-05 
-1.311053336637401e-05 
0.001940658611039196 
1.143613627783595e-07 
0.001699711561259884 
-0.01687804238348475 
-0.00201461152736913 
7.763815798861751e-05 
1.393607765435772e-05 
0.001843804211513306 
0.005228325664039775 
-0.003384521551319119 
-0.0004242037309906404 
0.0001576807989430401 
0.002147105577719972 
1.885238715529162e-08 
0.002113390032010193 
0.003415734240333992 
-0.0004617095980192085 
8.758093838692438e-05 
-0.0007005314138775713 
0.003486269211167693 
0.01300496354184437 
-0.009518694502213073 
0.0001765130212865936 
0.0001644189339915566 
0.008725304607068008 
-1.177043803790058e-07 
0.008862916158305268 
-0.01618019868427781 
-0.001862322556331618 
0.0001026884388922334 
-0.0004798382532326585 
-0.002778285079074935 
0.0005672059953180161 
-0.003345489094152068 
4.10535306522267e-05 
-0.0001236466639768332 
-0.00150631805852773 
8.243549630972158e-08 
-0.001838036975030376 
-0.001337519506490574 
-0.0007197093608122626 
-2.307157440599287e-05 
-0.0002100568039636113 
-0.003464003034832526 
0.007059030583545977 
-0.01052303418918326 
5.43874297790983e-05 
-0.000204417973677537 
0.0001253286179886454 
1.984425156861535e-09 
-2.795248185044879e-05 
-0.02335436796319143 
-0.002461797513742257 
0.0001120385718815212 
-0.0002753298710816467 
-0.005514491897480147 
-0.0003708566100309344 
-0.005143634799981193 
-4.936695724878873e-05 
8.46904617393741e-05 
-0.003791043242189371 
1.026779380497868e-07 
-0.004175267430363693 
0.004577877691989419 
-0.0002498103686798296 
-0.0001442993956108635 
-0.001020554395981821 
0.003986212129931494 
0.007760537204006186 
-0.003774324183794125 
-0.000261237577874751 
0.0003792217381302712 
0.003043353026574853 
2.838195488202643e-08 
0.003164439720674822 
-0.01766037330033336 
-0.002051918278530027 
0.0003017209225366549 
4.28492810934499e-06 
0.001779039142704655 
0.001973945223463918 
-0.0001949056731167741 
-0.00017462854681576 
0.0001271274588614725 
-0.003371047420426872 
1.424439197155453e-07 
-0.003743196208971646 
-0.005045319943269968 
-0.001011739172872133 
0.0003077366920711085 
-0.0003463886141318922 
0.003528190250439016 
0.002081537771335507 
0.001446652667252107 
2.522850831931947e-05 
6.969908654323029e-05 
-0.0007238924891075885 
-6.252248045727458e-08 
-0.000742155035688941 
-0.002530774672878009 
-0.0007611215285590413 
0.0002074002319945024 
-0.0001184668653137262 
0.004156571119969217 
0.000140038576176574 
0.004016532181256526 
-3.709639428745951e-05 
0.0001955026652013313 
-0.0007572246012232652 
-2.556547909516469e-08 
-0.000728925290853011 
-0.001814209526807567 
-0.0006566079945455489 
0.000331295498516094 
0.0005149852541972688 
-0.0001206387472857284 
-1.304220337476901e-06 
-0.0001193345252830479 
-0.000196436011514882 
8.352833461958266e-07 
3.443535403461981e-05 
8.578747991176845e-10 
3.178967669092181e-05 
3.457215192123389e-06 
6.512871709385504e-06 
-0.001142236317912637 
-0.00525330164350211 
-0.0001192499338806172 
-3.73969482929881e-05 
-8.185298178670655e-05 
-9.182827399584617e-05 
7.347283734309856e-05 
-8.96505308417918e-05 
-1.323494990507179e-09 
-8.381484750754566e-05 
2.718239649134315e-06 
-2.251137862969095e-06 
8.19772525853127e-05 
-0.0009803526050497038 
-0.02117009515963882 
0 
-0.02117009515963882 
-1.948683434913645e-06 
0.0009121113840469818 
0.002673730631030184 
-1.293582049443598e-06 
0.006589305395828258 
0.0078341040298349 
-0.003798680393808146 
-0.001185537951100825 
-0.006730085895226321 
5.638644264005437e-07 
8.147400979846584e-07 
-2.508750392197409e-07 
0.0001036788899199668 
7.861736210205564e-05 
6.225293258598396e-10 
-1.613181253460198e-13 
5.626896892252692e-10 
1.146450326548379e-10 
-5.305607523492924e-08 
9.406155387252606e-05 
-0.01370987175260452 
-0.001062541155817084 
0.0008297362769509612 
-0.001892277081819274 
0.0002146058744730543 
0.0002393723167261166 
2.762236580483942e-07 
2.240682816749058e-10 
2.250731582856575e-07 
-0.0001097757888316643 
-0.0001489733329030545 
-0.0002158192252783985 
-0.002123904057559742 
-0.0005012304041511758 
0.0001932391241053685 
-0.0006944695959165958 
-8.751516322767727e-05 
1.853359997332313e-05 
1.949408245942377e-07 
-1.365250344793249e-09 
2.141568733700516e-06 
0.0003461472253075229 
3.932868451475867e-07 
0.0001049456466938106 
-0.0009189996710743374 
-0.0006653158203974928 
0.001262365092993214 
-0.001927679670804075 
5.500856395125014e-05 
-0.0001286862209499734 
1.981601264985531e-07 
-1.974069713857436e-10 
-2.630829169704631e-07 
-0.0003483399327511461 
-0.0002578918825784209 
0.0001306676792825351 
-0.0009110654312700215 
-0.000294274428589689 
0.0003649753435555006 
-0.0006592499308094668 
0.0001314242788109973 
-0.0001179887668215774 
-6.64873790903166e-07 
-2.119202134076874e-09 
1.854178170614518e-06 
0.00053670493425088 
9.087986244752152e-06 
1.450960698447822e-05 
-0.0008776695837985198 
-0.001470305712974202 
0.001641844618708459 
-0.003112150333045204 
-0.0003200125292814815 
0.0001431109807831004 
1.43670617498759e-07 
-1.30082877119654e-09 
3.022479892613621e-06 
-0.0003635115968198282 
-0.0002630634710071031 
0.0001201615557550817 
-0.0013214096222316 
-0.0005444718102030662 
0.0003592162113422584 
-0.0009036884702613461 
-9.580615773124039e-06 
4.156549726170391e-05 
7.937637274804318e-08 
7.251800061585901e-10 
-1.030971125607661e-06 
3.819833188613457e-05 
-0.0001333668653760665 
-6.162795115435992e-06 
-0.0005879778797191128 
-0.00168094854898329 
0.001717201736879549 
-0.003398150924545876 
4.479483085537193e-05 
-0.0002646495627315181 
-3.536200161012439e-07 
6.574256020192215e-10 
4.7998495627785e-08 
-0.0008909521352701319 
-0.0004308116858465463 
-2.753574232859926e-05 
-0.0009282091523579565 
-0.00052584734569048 
0.000328790195669667 
-0.0008546378217853686 
0.000207339689065296 
0.0001365983496537665 
2.830901382971335e-07 
-6.007158810702728e-10 
9.142409470302494e-07 
8.258944913795889e-05 
-0.000121895363293318 
-7.182278994753866e-05 
-0.0006375076989562099 
-0.001035810567501071 
0.001224061270787258 
-0.002259872135054087 
-5.217711130555493e-05 
-6.802314431948122e-05 
1.395364929187912e-08 
2.959241038943425e-10 
-1.275619048475756e-06 
-0.0006748488564007981 
-0.0003669625069265315 
3.089462076888068e-06 
-0.0007167405886235552 
-0.0003463651625163233 
0.0003516544050737252 
-0.0006980205029861634 
9.3272205711953e-05 
8.192132185572105e-06 
-1.370536872709297e-07 
-4.878948088443415e-11 
-1.400875911672323e-06 
-0.0002708793060356883 
-0.0002353905344373208 
2.44604731768951e-05 
-0.000581569320921957 
0.0001673499124051397 
-8.976225005343413e-05 
0.0002571117821680412 
0.0001497815966532873 
1.624178881799042e-06 
-2.310765185978437e-07 
-1.323679366851221e-09 
2.117854390816424e-06 
-0.0001039753911698271 
-0.0001719668521526395 
5.086084352182569e-05 
-0.0003628906944979331 
0.0005929959538740823 
-0.0007019568898807208 
0.001294953188697643 
2.261484982272499e-05 
1.183412923990232e-05 
-4.56205811667565e-07 
4.408828496742034e-10 
-1.197435493258535e-06 
-0.0002666443828813549 
-0.0002269413483349082 
-1.580764218762815e-05 
4.374121856420951e-06 
-8.557333829332709e-06 
2.338258334663756e-05 
-3.193990887262384e-05 
-0.0001596814015666824 
7.884258132385982e-05 
1.569087134794397e-08 
-2.76465604707392e-11 
5.87206606066203e-08 
2.524223161414933e-07 
2.75780792769085e-06 
0.0001403971832947165 
-0.004932089673480713 
-1.612522568256739e-05 
1.360491145820978e-05 
-2.97301195703819e-05 
-2.011909419633234e-05 
0.0002802332256968227 
-1.339058547759856e-08 
2.94157238953558e-12 
-3.58896518627819e-08 
9.212851136596669e-08 
-1.593570594029689e-06 
5.224891259752057e-05 
-0.0009515083120695063 
-0.01221626050719251 
0.00464598684572629 
-0.01686223469049414 
3.780714330267923e-05 
4.370328056270077e-05 
-5.732086188881767e-07 
1.937519719148175e-09 
-1.061583627811748e-05 
-0.03669965087212531 
-0.002079904737593751 
-7.159669874408566e-07 
-0.005657076215386968 
